#include <algorithm>
#include <cmath>
#include <vector>

#include <omp.h>

#ifndef TASK2_PREDICTION_THREADS
#define TASK2_PREDICTION_THREADS 3
#endif

struct Rating {
    int user;
    int item;
    float rating;
};

class IncrementalSVD {
public:
    void load_base_model(float* user_matrix, float* item_matrix, int u_size, int i_size, int dim, float mean) {
        omp_set_dynamic(0);
        omp_set_num_threads(prediction_threads);

        users = std::max(0, u_size);
        items = std::max(0, i_size);
        latent_dim = std::max(0, dim);
        global_mean = mean;

        user_accum.assign(users, Accumulator{});
        item_accum.assign(items, Accumulator{});
        user_score.assign(users, 0.0f);
        item_score.assign(items, 0.0f);
        user_static.assign(users, 0.0f);
        item_static.assign(items, 0.0f);
        user_score_data = user_score.data();
        item_score_data = item_score.data();
        build_embedding_offsets(user_matrix, item_matrix);
        build_count_tables();
        has_updates = false;
        scores_ready = true;
    }

    void update(const std::vector<Rating>& incremental_batch) {
        if (incremental_batch.empty() || users <= 0 || items <= 0) {
            return;
        }

        Accumulator* const ua = user_accum.data();
        Accumulator* const ia = item_accum.data();
        const float mean = global_mean;
        const Rating* const ratings = incremental_batch.data();
        const int n = static_cast<int>(incremental_batch.size());

        int idx = 0;
        for (; idx + 1 < n; idx += 2) {
            const Rating& r0 = ratings[idx];
            const int user0 = r0.user;
            const int item0 = r0.item;
            const float residual0 = r0.rating - mean;
            ia[item0].sum += residual0;
            ++ia[item0].count;
            ua[user0].sum += residual0;
            ++ua[user0].count;

            const Rating& r1 = ratings[idx + 1];
            const int item1 = r1.item;
            const float residual1 = r1.rating - mean;
            ia[item1].sum += residual1;
            ++ia[item1].count;
        }
        for (; idx < n; ++idx) {
            const Rating& r = ratings[idx];
            const float residual = r.rating - mean;
            const int item = r.item;
            ia[item].sum += residual;
            ++ia[item].count;
            if ((idx & 1) == 0) {
                const int user = r.user;
                ua[user].sum += residual;
                ++ua[user].count;
            }
        }

        has_updates = true;
        scores_ready = false;
    }

    float predict(int user_id, int item_id) {
        if (static_cast<unsigned>(user_id) >= static_cast<unsigned>(users) ||
            static_cast<unsigned>(item_id) >= static_cast<unsigned>(items)) {
            return global_mean;
        }
        if (!has_updates) {
            return global_mean;
        }
        if (!scores_ready) {
            ensure_scores_ready();
        }

        float score = intercept + user_score_data[user_id] + item_score_data[item_id];
        return clip_score(score);
    }

private:
    struct Accumulator {
        float sum = 0.0f;
        int count = 0;
    };

    static constexpr int embedding_dim = 256;
    static constexpr int hidden_dim = 32;
    static constexpr int prediction_threads = TASK2_PREDICTION_THREADS;

    static constexpr float intercept = 4.42742279f;
    static constexpr float log_user_count_weight = -0.35739037763299225f;
    static constexpr float log_item_count_weight = -0.010405138231289704f;
    static constexpr float log_user_count_square_weight = 0.03385049751798333f;
    static constexpr float log_item_count_square_weight = 0.001317321440029219f;
    static constexpr float inv_user_count_weight = -0.8801704691948185f;
    static constexpr float inv_item_count_weight = 0.0439380115327232f;

    static constexpr float user_output_bias = -0.0083119492f;
    static constexpr float item_output_bias = -0.00187785958f;

    static constexpr float user_embedding_weight[embedding_dim] = {
        0.123676814f, 0.251013041f, -0.0847120956f, -0.0855544955f, 0.263914317f, -0.00404359493f, 0.233651683f, -0.144948557f,
        -0.0514470488f, -0.117258936f, -0.00682629319f, 0.0407203361f, -0.0146019524f, -0.127306327f, 0.0358216502f, 0.0884158015f,
        -0.11712876f, -0.027977366f, -0.194828898f, 0.049331788f, 0.106729992f, -0.039438609f, -0.140629023f, 0.184735447f,
        -0.0613333881f, -0.112550244f, -0.125902906f, -0.0562254861f, -0.26732716f, 0.154970825f, -0.079483211f, -0.10129375f,
        0.23126778f, -0.0707758591f, -0.207776859f, -0.089925088f, -0.162792876f, 0.128556103f, -0.0578939021f, -0.0855541155f,
        -0.189231932f, -0.206589937f, 0.133030608f, -0.20660691f, -0.512720704f, -0.00364073738f, -0.0255014002f, -0.181568652f,
        0.0747417584f, 0.00920508523f, 0.253310293f, -0.272601187f, -0.14748235f, -0.0233835876f, 0.228960603f, 0.00591257261f,
        0.015610842f, 0.153414682f, 0.0716278851f, 0.104764365f, -0.01753507f, -0.0532675385f, -0.27146548f, 0.160313278f,
        0.171485215f, 0.0794816241f, 0.0489307307f, 0.160237655f, 0.0243887678f, -0.107138954f, 0.0223764591f, 0.0326813199f,
        -0.0309570003f, 0.00363127794f, 0.113984838f, -0.0063140234f, 0.0101186708f, -0.0190359764f, -0.121868223f, 0.076425381f,
        0.077985324f, -0.0939362794f, -0.185201004f, 0.165311053f, 0.305023581f, 0.31371963f, 0.344424427f, 0.0803567916f,
        0.129700243f, -0.380995542f, 0.188602597f, 0.0374754891f, -0.0796865076f, -0.0560680926f, -0.112006061f, -0.323340118f,
        -0.260839403f, -0.182678461f, -0.0709837675f, -0.186902449f, -0.415630847f, -0.141473696f, -0.480503172f, 0.0976293981f,
        0.0984416828f, 0.115810513f, -0.0198355187f, 0.118182018f, -0.16767846f, -0.416481048f, -0.21472092f, -0.0798007026f,
        -0.0585548356f, -0.281139314f, -0.19767718f, 0.0787571371f, 0.169340983f, -0.17413418f, 0.238014638f, 0.0822674334f,
        0.0773793086f, -0.523022771f, 0.0628177971f, -0.415989846f, -0.0946916342f, 0.013363014f, 0.272183329f, 0.108292818f,
        -0.134322181f, 0.216807812f, -0.241750523f, 0.0351418741f, -0.376161456f, 0.197749063f, -0.233049139f, -0.0666026548f,
        0.35155651f, -0.439555168f, -0.0810686871f, -0.00783511624f, 0.297875524f, -0.259013563f, 0.047895845f, -0.183849558f,
        -0.108392321f, 0.265250951f, -0.080002442f, 0.283242166f, -0.157411069f, 0.180116042f, 0.157573164f, 0.414226174f,
        -0.134553179f, -0.00490746694f, -0.359786421f, 0.0780873522f, -0.196183041f, -0.239961699f, 0.0833488628f, -0.256653249f,
        -0.344747603f, -0.134683892f, -0.175292805f, -0.162966341f, 0.0810004249f, -0.0667632893f, 0.118618578f, -0.236291125f,
        0.107263505f, 0.103303015f, -0.0790676475f, 0.135628507f, 0.105340682f, 0.131048128f, -0.170725942f, -0.233945668f,
        -0.206827715f, -0.0961233899f, -0.0714520812f, -0.255944252f, -0.00749715883f, 0.234131783f, 0.302476645f, 0.0688420609f,
        0.0534668192f, 0.248532295f, 0.0773402452f, -0.14988263f, -0.25464955f, 0.0963362828f, -0.00406473828f, -0.103460975f,
        0.0457765982f, 0.207344815f, -0.00964671094f, 0.131595254f, 0.198976293f, 0.0949875116f, 0.162016675f, -0.00325962785f,
        0.106834374f, 0.0801257491f, -0.255654901f, 0.225887746f, -0.00901710521f, 0.194273114f, 0.485431761f, -0.0662104934f,
        0.340794832f, 0.0175302047f, 0.216304883f, -0.398051769f, 0.00266550574f, -0.0573017225f, 0.0642514527f, -0.193274438f,
        0.163075939f, 0.00181193533f, -0.151661217f, -0.0624825805f, 0.0808314309f, -0.0353445485f, 0.0565383062f, -0.330680668f,
        0.434014916f, -0.00198316481f, -0.264759153f, -0.0309854113f, -0.0265596882f, -0.0104415864f, 0.295941204f, 0.00659886003f,
        0.159725815f, -0.190362111f, 0.1058935f, 0.0486284271f, -0.135850295f, -0.179285333f, 0.0751671121f, -0.0107824765f,
        0.0458853133f, -0.236964867f, 0.0902864933f, 0.0508085042f, 0.195346296f, -0.172388852f, 0.426070154f, 0.0903316811f,
        -0.18063426f, 0.0556810908f, 0.157749727f, -0.0542126335f, 0.218709394f, -0.274413288f, -0.236524254f, 0.223360464f,
    };

    static constexpr float item_embedding_weight[embedding_dim] = {
        0.012057282f, -0.00471588876f, -0.0229321923f, -0.0307785682f, -0.0221540313f, 0.0150631517f, 0.0259939115f, 0.0262748208f,
        -0.0205259509f, -0.015346827f, 0.00116650993f, -0.00470069842f, 0.00375256478f, 0.0401081741f, -0.0380098522f, -0.0179572944f,
        -0.00705952523f, 0.00670191366f, 0.0300840437f, -0.0065782927f, 0.00251046359f, -0.00329068769f, 0.0527186058f, -0.00835021585f,
        -0.0231359843f, 0.00406345725f, -0.0341298319f, -0.012765293f, -0.014266259f, -0.0427742973f, -0.0216229167f, 0.0189302992f,
        0.0352093875f, 0.013933233f, 0.0337433703f, 0.0276599079f, 0.0117085846f, 0.0247595757f, -0.0167344883f, -0.0175673962f,
        -0.0493503287f, -0.0419390649f, 0.0577879138f, -0.00573805906f, -0.0144721437f, 0.00253120391f, 0.0276165958f, -0.00160058786f,
        -0.00358362682f, -0.0197987854f, 0.0378884487f, -0.0118046552f, -0.0217980482f, -0.000570236589f, -0.0322127081f, -0.0111850947f,
        -0.0156963151f, 0.0834241062f, -0.0308103804f, -0.0297740642f, -0.00314771081f, 0.0229189545f, 0.0384511314f, -0.00558484625f,
        0.0116238268f, 0.005289861f, 0.00218979502f, 0.0231400393f, -0.00721486891f, 0.0316197053f, 0.0514348038f, -0.0469153337f,
        0.010217295f, 0.00879099872f, 0.00772973057f, -0.00433017872f, 0.0332773328f, -0.00723280292f, -0.0265085269f, -0.0296775755f,
        -0.0356403627f, -0.0166162048f, 0.00345204747f, -0.00532261143f, -0.0128482562f, -0.031771522f, 0.00962131284f, 0.00594376074f,
        -0.0377524346f, 0.0305289924f, 0.00986574497f, -0.0669129789f, 0.000231830607f, 0.0293000136f, 0.0094098011f, -0.00601621112f,
        0.0191269033f, 0.0303244628f, -0.00889566913f, -0.00683753472f, 0.0314815901f, -0.0215002f, 0.000672365306f, 0.00780145777f,
        0.00701956032f, 0.00328292814f, 0.0137950489f, 0.0141430981f, 0.0366758145f, -0.0146765597f, 0.0158437062f, -0.0413247943f,
        0.0107987886f, 0.00916003063f, 0.00860944577f, -0.0290720556f, -0.0291317143f, 0.0133204097f, 0.0526290722f, 0.0154388677f,
        -0.0152399773f, -0.0165771749f, -0.0175282918f, 0.0154316723f, 0.0143876513f, 0.013107853f, -0.0427077822f, 0.00560507132f,
        0.0267238412f, -0.0120400377f, 0.0350188278f, -0.0245269351f, 0.0150359171f, -0.0518868826f, 0.00301944441f, -0.00358927669f,
        -0.0148401083f, 0.0051778229f, -0.00584599935f, 0.0180227067f, -0.00476595387f, -0.0257075801f, -0.0153133646f, -0.0141611481f,
        -0.0164733175f, -0.0260497648f, 0.0461210348f, -0.0622317642f, 0.01337553f, 0.00200067763f, 0.0202036817f, -0.0056196074f,
        -0.020976346f, -0.0718309507f, 0.0309275463f, 0.0190200061f, 0.00168713194f, -0.0825824291f, 0.0346009433f, 0.0438046828f,
        -0.0139803207f, 0.011199886f, -0.0361481048f, -0.00471925782f, -0.0109436186f, 0.00444166828f, -0.0137000047f, -0.0262025744f,
        -0.0329619572f, 0.0289553069f, -0.025334809f, -0.026213631f, -0.00746579375f, -0.0807669833f, 0.0273154285f, -0.00981136039f,
        0.00503903767f, 0.0282285716f, -0.00408156263f, 0.00243136077f, 0.0120868357f, 0.0695223138f, -0.0120060779f, -0.01227412f,
        0.0372465104f, 0.0335983634f, -0.0319387875f, 0.00774040492f, 0.0181858446f, 0.0068704742f, 0.0155817578f, 0.00228270073f,
        0.0389646366f, 0.0281885043f, 0.0301918704f, -0.00289628841f, 0.0279611126f, -0.0334574096f, 0.0321633406f, -0.0543804541f,
        0.0179860517f, -0.0339126512f, -0.0271848962f, 0.0209384747f, -0.0177690331f, 0.024788294f, 0.0415989421f, -0.0607508458f,
        0.0118790343f, 0.00533569185f, 0.00057554245f, 0.0211786963f, 0.0152295735f, -0.00212015933f, 0.0397513174f, 0.0745032728f,
        -0.00453075534f, 0.0128606381f, 0.00988809019f, -0.00110612425f, 0.00200159964f, -0.00576377334f, 0.0195463803f, -0.0183986388f,
        0.0120250229f, 0.0475597791f, 0.0659191534f, 0.00337094953f, -0.0599233396f, 0.0186843351f, 0.0169550776f, -0.00678282091f,
        -0.0381239094f, -0.0224444829f, 0.035133224f, 0.0160071421f, -0.0125878202f, 0.00731609482f, -0.0416491143f, 0.020039361f,
        0.0454857349f, -0.0245001391f, -0.0224064887f, -0.0735835359f, 0.0115285087f, -0.0623222701f, 0.00223903521f, -0.0113608548f,
        -0.0127810687f, 0.0124500748f, 0.0289876089f, 0.0199025441f, -0.021454215f, -0.0482414067f, 0.0255247839f, 0.0341593809f,
    };

    static constexpr float user_hidden_bias[hidden_dim] = {
        0.0869202241f, -0.0859832764f, 0.0857622251f, -0.0635246038f, -0.024133198f, -0.0393720679f, 0.023711009f, 0.0464909673f,
        0.0633733571f, 0.000636152923f, 0.0367697515f, 0.037145175f, 0.0552515574f, -0.00114406133f, 0.0833402351f, 0.00608623773f,
        0.113639161f, -0.240239397f, -0.107836954f, 0.0199522488f, -0.0522089787f, 0.0640174896f, -0.0736707151f, 0.025289787f,
        0.0284175761f, 0.153234676f, -0.0235835873f, -0.0688706338f, -0.0243565887f, 0.0158390999f, -0.0159858949f, -0.110766426f,
    };

    static constexpr float item_hidden_bias[hidden_dim] = {
        0.090396665f, 0.0293265432f, -0.13522163f, -0.259859592f, -0.0794258788f, 0.267305136f, -0.14698343f, -0.180580676f,
        -0.208602592f, -0.105786763f, -0.0800868943f, -0.174645379f, -0.247645676f, -0.371885478f, 0.0673716143f, -0.164163515f,
        -0.359280884f, 0.00373766758f, 0.016288124f, -0.181594148f, -0.0109871086f, 0.0549445562f, 0.258601576f, 0.00965456665f,
        -0.261772126f, -0.00268827565f, 0.0435927548f, 0.162867546f, -0.253590614f, 0.0796843469f, -0.107481413f, 0.0128928442f,
    };

    static constexpr float user_hidden_out[hidden_dim] = {
        -0.0844507962f, 0.0864564925f, 0.0978392214f, 0.0453702174f, 0.0655176565f, 0.104942493f, 0.105080113f, -0.106376082f,
        0.0554298647f, -0.0882148668f, 0.084721297f, 0.0945036858f, -0.076530613f, -0.071857132f, -0.0695132464f, -0.0667438209f,
        0.134218156f, -0.125410751f, 0.110444233f, 0.05863785f, -0.0612585358f, -0.0519408323f, 0.0439104512f, -0.0602673627f,
        -0.0957762375f, -0.0607054308f, 0.1251605f, -0.0815388337f, -0.0948157758f, -0.0627611205f, -0.0597524829f, 0.100298651f,
    };

    static constexpr float item_hidden_out[hidden_dim] = {
        -0.0192044526f, -0.0163062625f, 0.00743454136f, 0.0110808099f, -0.00992961321f, 0.0202925522f, -0.0134141985f, 0.00989594217f,
        0.0173144154f, -0.00918868091f, 0.0106414612f, 0.0167599842f, 0.0057606576f, 0.0145319626f, 0.0026465226f, 0.0128278965f,
        0.013323701f, -0.0129202828f, -0.013249578f, -0.0186582878f, -0.0114526311f, 0.0149970287f, 0.0106033124f, -0.0182666853f,
        0.0122985039f, -0.0113974754f, -0.0168745816f, 0.0128733627f, 0.00593201257f, 0.0134757888f, 0.0100050485f, -0.0145406984f,
    };

    static constexpr float user_hidden_weight[hidden_dim][embedding_dim] = {
        -1.30787659f, 1.2685703f, 1.08399451f, 1.19332933f, -0.238206804f, 0.653928161f, -0.0676736459f, -0.801446199f,
        1.76940799f, -0.846671045f, -0.60351795f, 1.68227875f, 2.24074459f, 1.72204173f, 0.44855839f, -2.35343385f,
        -1.19693017f, -1.44624174f, 1.32014167f, 0.169288129f, 3.20078278f, -0.832476497f, -1.65427315f, -2.32087159f,
        1.33225918f, 1.14785957f, 0.548775077f, 2.02045631f, -2.23685932f, 0.275755674f, 2.95016074f, -0.260253996f,
        -0.265425682f, -3.45803189f, -1.62932682f, -0.365795434f, -0.669916511f, -0.107300282f, -2.83019328f, -0.0771500021f,
        1.84039247f, 0.952658117f, -2.45390391f, 0.0635286793f, -1.21905994f, -3.17392898f, 0.0412409902f, -0.189167723f,
        0.635319829f, 1.49570823f, 2.2476089f, -1.13313293f, -0.600665748f, 0.197750762f, 2.16798902f, 1.84418702f,
        -0.946943045f, -1.2981019f, 0.3362647f, -1.23828959f, -0.690723181f, 1.00406885f, -2.92124224f, -0.497900397f,
        0.916710973f, 1.78253233f, 0.836949587f, 0.904406428f, -0.492681831f, 2.27179003f, -0.924081147f, -1.20417452f,
        -0.359697491f, 0.757324636f, 1.00352418f, 3.03230548f, 2.14978456f, -1.8867836f, 1.69569182f, -0.893829644f,
        -1.2648108f, 0.187977076f, -4.68415928f, -0.0725511089f, -0.2485836f, -1.66669369f, 2.03553414f, 1.41871107f,
        4.79596329f, -0.46548f, 2.54214191f, 0.136383653f, 0.430564016f, 3.05636191f, 0.00487500196f, 0.8288095f,
        -1.24350309f, 2.21076059f, -0.242259502f, 3.16154361f, -1.45991051f, 4.00744343f, 1.92744267f, 0.288708657f,
        1.15699017f, 3.28082466f, 0.685673475f, -1.85761619f, -0.426311582f, -1.946908f, -2.04587913f, -2.49158549f,
        -0.321209341f, -0.288381994f, -1.41700733f, -0.0843390226f, -3.19751954f, 1.32069314f, 1.12445092f, -0.991555154f,
        0.840593457f, 1.5407995f, 0.80228281f, 0.353398472f, 1.32835376f, -1.7591542f, -4.15478325f, 0.0131077962f,
        0.197210759f, -2.16359472f, 0.827194154f, 0.168836519f, 1.13657618f, 4.07590199f, 0.899717569f, -0.962155163f,
        1.67293799f, -0.516606212f, -2.27527547f, -0.1951226f, -0.184031785f, -3.03887177f, 1.15658844f, 1.53633654f,
        1.81153882f, -0.922518432f, -1.19750345f, 2.74503851f, 0.346697956f, -1.51447582f, 1.48436975f, 0.929082692f,
        -0.171620324f, 2.67543745f, -0.788233638f, -2.61536741f, 2.22763228f, 2.81750894f, -1.37600911f, -0.525986433f,
        -0.680300117f, -0.36363104f, 0.576435924f, 0.347977489f, 2.03247476f, -0.586209834f, -4.65625858f, -0.745437384f,
        -1.82040358f, -2.72850633f, -0.959661007f, -1.21171737f, 1.15180862f, -1.61021829f, -2.03117132f, -0.672789156f,
        1.70850408f, 2.00331974f, 3.27360439f, -1.71895921f, -2.73938775f, 0.64192307f, 1.1504389f, 1.39317703f,
        0.0539452657f, 0.419057459f, 1.36388397f, -3.37426662f, 0.0480013192f, -1.72203851f, 0.565074444f, 0.355607361f,
        1.77545619f, 0.344429582f, 1.38510025f, 0.443034172f, -0.878063977f, 2.31149435f, -2.68402648f, -1.52015948f,
        -1.65891743f, 3.37652397f, 0.350736946f, 0.168144315f, 6.24730492f, 0.092335932f, -2.33527184f, -2.13001227f,
        2.90685678f, -0.831932485f, 0.758092165f, 2.43873405f, 0.109976128f, -1.31900394f, 0.0276554078f, 0.84168309f,
        -0.304604977f, 1.68549228f, 2.26198912f, -1.55698514f, -1.4328028f, 0.0261324998f, -2.07739139f, -1.05881178f,
        -1.32534325f, -2.84390664f, 0.816950321f, 0.0724069253f, 1.34226608f, -3.6005373f, 3.35561204f, -1.77913082f,
        -4.97669315f, -1.95741403f, 3.12251139f, -2.22103024f, -2.4821074f, 2.31503725f, -0.0373178199f, -0.572209597f,
        0.942027628f, -0.499398023f, -0.386110753f, -4.03783798f, 1.30152166f, -0.216261625f, -1.2882992f, -1.89963031f,
        -0.382124364f, 1.89178324f, 2.66775131f, 0.636625648f, -0.385722041f, 0.392300963f, 1.81421506f, -2.56030178f,
        0.248934478f, 1.15826917f, 0.363774657f, 1.00415301f, 0.81533891f, 0.246225506f, -0.369998276f, 0.582916379f,
        -0.576902926f, -2.08486724f, -0.542780399f, -0.420222849f, 1.10500908f, -0.397949874f, -1.05732763f, 0.596371055f,
        -0.367113769f, -3.80742288f, 0.127372682f, 0.0676655546f, -0.29633835f, -0.953243554f, -1.17907667f, -1.46584582f,
        -1.39695096f, 1.77814376f, -0.537956357f, -1.69196641f, 1.81341124f, 1.34661841f, 2.46467733f, -0.570802629f,
        -1.03705907f, -0.956487954f, 1.55358398f, 0.183433563f, -2.34231186f, 0.760534108f, -0.448170543f, 2.7584331f,
        -0.876413763f, -1.39810109f, 1.67576027f, 2.03623939f, -2.77643657f, 0.529059887f, -0.722645342f, 0.631705105f,
        -1.10016942f, -3.75055838f, 0.267633706f, 1.75421715f, 1.55017245f, -1.18906999f, -0.804623842f, 0.371040851f,
        0.770135641f, 0.7740376f, -0.643588543f, 1.98300195f, -1.57540095f, -0.117488444f, 0.284979343f, -1.98646557f,
        -1.70377958f, 1.17477286f, -0.423731387f, 2.0939095f, -3.6483016f, 0.620892048f, 0.467144161f, -2.83808398f,
        0.401368082f, 1.19847167f, 1.04004693f, -0.0911175385f, -0.271748394f, 0.224901423f, 1.57112086f, -2.03620934f,
        0.351000607f, 0.329495579f, 3.73018765f, -0.0735322237f, 0.595610917f, -0.482028723f, -2.907058f, -2.02015543f,
        -2.0444026f, -0.984813869f, -0.951644659f, 1.58681953f, 0.843854904f, 1.39585209f, 1.72038019f, -1.11225545f,
        -3.19815922f, -2.66012549f, -1.8753258f, 0.0217522532f, 2.66588998f, -1.9778645f, -0.138165668f, 0.393570989f,
        -0.690720916f, 1.19959915f, -1.48227572f, 2.63998246f, -1.80955195f, -3.33298588f, 1.62048328f, -1.63809049f,
        -2.30168509f, -1.12150621f, -0.181379959f, -0.964935422f, 2.35709548f, -3.06836796f, -2.04646349f, -1.16957986f,
        -2.34836936f, -1.07780731f, 0.101690754f, 0.436001241f, 2.65613794f, -1.21284711f, -0.790064812f, 0.410933584f,
        1.05350637f, 2.29976583f, -0.0829534233f, -2.66648531f, 2.45881009f, 3.18378592f, 0.601561606f, -1.7740711f,
        2.07654524f, -0.430871248f, -2.6664772f, -3.36404324f, 3.96141148f, -1.11315227f, -1.12075686f, 1.78503096f,
        1.54579961f, 1.43392384f, 0.288698226f, 1.51379645f, 2.22994375f, 0.980382204f, 0.490162522f, -0.711077511f,
        -0.787723184f, -1.34208596f, -0.845255733f, -0.514625311f, 0.618317723f, -0.73895973f, -2.40177679f, -3.85614467f,
        -2.22065115f, -3.37319112f, -0.831883669f, 0.836931705f, -2.15183902f, -1.24491405f, 0.819892883f, 1.06666446f,
        -2.67301655f, 1.29488516f, 0.380542606f, -2.89043498f, -1.46702397f, -2.36585784f, -0.864594102f, 2.91192579f,
        -3.57440877f, 0.759891629f, -4.83623981f, 1.21641064f, -0.698981762f, 0.299851954f, -1.31136f, -1.62400281f,
        0.135670245f, -1.00639594f, -2.64778256f, -2.02020192f, -3.66370797f, 1.61019015f, 3.63334179f, -0.362980455f,
        0.440182388f, 1.23588419f, 0.583123446f, -2.07116222f, 1.24155319f, 2.5150342f, 2.99688888f, 0.787863553f,
        -0.0480986871f, -2.17273998f, 2.35944915f, 0.357296348f, 5.63226748f, -1.37318003f, 1.18643725f, 2.15814304f,
        -1.42438257f, -0.914058149f, 2.04223871f, -2.3782022f, -0.283505917f, -0.456455439f, 0.705487013f, 1.87426412f,
        -0.380349398f, 2.14712358f, 1.1029166f, -0.869312704f, 0.269890547f, -0.954161346f, 0.448817939f, -0.554781556f,
        -0.718217552f, -0.554891348f, 1.24939656f, -2.29017401f, 0.43920064f, -0.720903635f, -0.129160181f, -2.66321158f,
        1.39332008f, 1.75371969f, 0.502419889f, -1.09162951f, -1.87481821f, -0.603438139f, -2.023067f, -2.20681858f,
        3.19958138f, 1.36698723f, -2.28573799f, 0.50191617f, -1.7974689f, 0.878995001f, -0.854682803f, -3.40701652f,
        -0.501318932f, 2.39552784f, 0.371314675f, -0.00726179592f, -0.649883389f, 1.91642404f, 3.94971776f, 0.572847843f,
        -0.827888668f, -0.139855415f, -0.728353083f, 0.978452921f, -0.749210954f, -1.71994877f, -0.350391001f, -0.618807137f,
        0.415437311f, 1.77309346f, -0.941216469f, -0.653101027f, -1.84381211f, -0.13184981f, 1.41075361f, -0.593939424f,
        1.10779727f, -0.691375494f, 0.393176258f, -1.80100822f, 1.03632176f, 2.32265496f, 0.846962035f, 1.6467855f,
        1.30746043f, -0.171790943f, 0.761909425f, 1.50446141f, 1.8544507f, -1.15698385f, -2.27453327f, -3.78296661f,
        0.173598155f, -1.57306015f, 0.272721201f, -1.78236914f, -1.04655206f, -0.715821207f, 0.310185343f, 0.897550642f,
        -2.87845039f, 2.15897512f, -1.83812594f, 0.0760996044f, 1.99250901f, 1.71986806f, 0.443258166f, -1.92379797f,
        1.65759659f, -1.92342246f, 2.37334585f, -0.785662949f, -0.606544137f, -0.14168036f, 0.601030707f, -1.56997609f,
        -1.26890135f, -2.43172932f, -2.24206233f, -1.53279173f, -0.308094263f, -1.04910767f, 1.28433895f, 1.83017528f,
        -1.68503046f, -1.01675713f, 1.56197059f, 0.584306836f, 1.48509312f, -1.57863939f, -1.23886514f, 1.83963704f,
        3.8345952f, 0.510435522f, -1.21685708f, -0.178123996f, 3.04663634f, -1.03958023f, -0.331074536f, 1.38634002f,
        -1.55411994f, 2.64021921f, -1.17230427f, -2.25061536f, -0.142511159f, -1.1306951f, -0.434109926f, 0.129192308f,
        0.623791575f, 1.94944513f, 0.720690072f, 1.69117415f, -1.78989911f, -0.8498317f, 1.64760017f, -0.176232025f,
        -1.33774757f, 3.60820365f, -4.61256981f, 0.678232968f, -1.97453928f, -2.03451228f, 2.53666282f, -1.6554997f,
        -0.0134917097f, -2.28105426f, -0.6156829f, 0.725401759f, 2.15496612f, -0.579276204f, -1.61465061f, 2.32168674f,
        0.0956338421f, 3.99309444f, 3.25839901f, -1.69464314f, 1.7686286f, -1.2091639f, 0.085687913f, -1.4605943f,
        -0.156884f, 3.17748356f, 1.2515732f, 1.44798911f, -0.565621197f, -0.991795361f, 3.96121407f, 1.5973295f,
        0.757542312f, -2.19099259f, -2.36747813f, 0.11839883f, -2.56795335f, 1.10877585f, -0.3926754f, 0.578346372f,
        -3.15730405f, -0.264796615f, 0.0780104995f, -2.17313862f, -3.84407711f, 0.472857833f, 1.24725759f, -0.468481123f,
        -1.05099416f, 2.23648977f, -4.30541515f, 0.997644782f, 1.45859969f, -1.95569587f, -0.180756629f, 3.33410692f,
        0.230258644f, 3.07821035f, -0.654176176f, -1.90260136f, 3.12319136f, -1.13290262f, 1.45765972f, -1.51682532f,
        -0.700345755f, 0.202248067f, -2.89146304f, -1.80779576f, 1.07056499f, 0.144201308f, -2.40866613f, 2.56038499f,
        -2.43850613f, -1.92348206f, -0.515502274f, -0.919150114f, 0.939919233f, -2.96287942f, 1.16169226f, 0.260103077f,
        1.3512795f, -1.22340786f, -1.50082672f, -1.62609506f, 2.41490483f, 0.784391344f, 3.23423553f, 2.80909538f,
        -1.26725924f, 1.23407269f, 2.11406016f, -0.288584471f, 0.0356504209f, 1.81223285f, -0.412091732f, -1.16035557f,
        -0.498148769f, -2.10210037f, 0.986892223f, 0.952529728f, 0.841340125f, -3.16539907f, -3.76053429f, 0.191727325f,
        1.84443283f, 0.188257143f, -2.92113805f, -0.901447356f, -1.7844969f, 0.435165942f, -2.74776673f, 1.73344386f,
        0.819323957f, 1.39116037f, 1.27627718f, -2.43629289f, 0.0127735939f, -3.61095977f, 1.58498168f, -1.03278053f,
        1.14726233f, 2.04225039f, 1.53091073f, -1.02751768f, -0.257616967f, -1.77747512f, 2.20465302f, -0.274833977f,
        0.405740619f, -1.47263908f, -1.94056082f, -2.24446154f, 1.25965846f, 0.0873693153f, 2.28841829f, -1.67470992f,
        0.0947727785f, 1.76093745f, 1.57545805f, 0.0850588977f, -1.9755621f, 0.942571223f, -0.879556835f, 1.44797063f,
        2.52429748f, 1.55903673f, 2.02609181f, -1.43001306f, 3.30650496f, 2.80422449f, 2.98953605f, 1.2280575f,
        -0.276824087f, 2.56376266f, -2.39974809f, -0.372914612f, -4.08112478f, -3.29356861f, -0.777823567f, 1.06392598f,
        -0.599774778f, 0.0846174657f, -0.375064313f, 0.0529426932f, -1.550089f, -1.40186131f, 0.839571238f, 1.71621633f,
        -2.2756474f, 0.969026864f, 1.57335401f, 0.0274042506f, 0.264510095f, 1.83378649f, -1.60022414f, 0.927884877f,
        2.28305793f, -0.32582584f, 1.9608711f, -0.0428371504f, -0.196709439f, 0.148484796f, 0.607774913f, -0.729790211f,
        -0.195236549f, -1.5836519f, 0.617873788f, -0.761504591f, 0.27070725f, 2.40948129f, 0.0540333875f, -0.146092504f,
        2.31785822f, 0.236454099f, 0.404110432f, 1.33382154f, -1.99813771f, -1.49354506f, 0.448898524f, 1.03537393f,
        0.870107234f, -0.0754726753f, -1.39934075f, -0.664562106f, -3.40070462f, 0.874760926f, -0.350362509f, 3.22466493f,
        2.74766994f, 3.86300254f, 1.68610001f, -1.55485439f, 0.209150851f, -1.93944919f, 1.50252485f, 1.92582285f,
        1.91737068f, -0.455496162f, -0.998812675f, 0.506287634f, -0.015145137f, 0.836952031f, 2.13036013f, 2.51350355f,
        -0.294128507f, 2.67141414f, 0.33454445f, 2.31238961f, -1.98037171f, 1.42079318f, -0.527730107f, -0.404821426f,
        -1.86428785f, -0.418124676f, -0.900938332f, -0.10859105f, 0.669028103f, -1.4607712f, 1.49398887f, -0.566699922f,
        -1.03599799f, -0.154096514f, -2.46881151f, -0.0518504009f, 0.4162817f, 0.766312301f, 1.30412126f, -2.56137824f,
        1.29336023f, 1.3979038f, 2.03951526f, -0.378876686f, 3.49659538f, 1.33465755f, -2.05890369f, 0.958999515f,
        2.28176188f, -0.468887746f, -0.467228979f, -1.86195612f, 2.30797124f, 3.05110574f, 0.805184007f, 3.19037604f,
        2.33868456f, -1.95918798f, -0.932613313f, 0.294104248f, 1.64047599f, -0.686512053f, 1.01160777f, 0.665372193f,
        -0.724572361f, 0.850272775f, -0.169368804f, 1.31119204f, 0.687895358f, -0.706879556f, -0.242763519f, -1.22350824f,
        0.216804519f, 1.33152032f, -1.44439769f, -0.0499301441f, 0.123937972f, -2.11993265f, 0.0298880003f, 1.05694938f,
        -2.57275486f, -1.53684521f, 0.828537762f, 0.602552891f, 1.15456605f, -1.88887215f, 0.393700868f, -0.981672168f,
        -2.6483705f, 1.32119024f, -2.27219582f, -1.13453364f, -1.14062536f, -1.31789768f, 0.0425241552f, 0.838927209f,
        0.682674766f, 0.960803509f, -0.350763232f, -1.80375898f, -1.79847479f, 3.32932305f, 0.672603607f, -0.672961712f,
        0.763188779f, 1.57253778f, -1.60799468f, -2.81918192f, 1.15643775f, 0.813704073f, 0.411375701f, -1.40695286f,
        1.59265161f, -2.05291867f, 0.738861978f, 3.32567477f, -1.39930356f, -2.55044937f, 0.578233004f, 2.03889155f,
        0.314978272f, 1.39103246f, 3.44703364f, 1.05596101f, 0.188876599f, 1.49371362f, -1.07165623f, 0.647183716f,
        -2.57397652f, 2.87312984f, 0.802957952f, 1.70302498f, 1.31395018f, -0.268137455f, -0.445958436f, -3.72790074f,
        0.0127805648f, 1.31722224f, -0.563228905f, -2.87290955f, 1.29790735f, 0.768508732f, 1.12945247f, 0.175214484f,
        2.42451453f, 2.94660616f, 1.36436081f, 0.113372393f, -3.92913389f, -2.01744914f, 4.34514284f, -3.08791041f,
        1.53829551f, 1.09079516f, 0.0610005111f, 2.04218149f, 0.89900279f, -1.05081558f, -1.56255925f, -2.29898667f,
        1.77826178f, 2.06823587f, -1.20623386f, -1.26548147f, 0.503533542f, 3.81491232f, -1.18966603f, -0.342649668f,
        0.920167446f, 1.06232738f, -1.52133894f, -0.065628089f, 1.78354466f, 1.97175133f, -2.72811365f, -2.01666141f,
        -0.716629088f, -1.57145333f, -0.189075381f, -2.49372292f, -1.95124149f, 1.82782245f, 0.525520921f, 0.930650771f,
        1.17864931f, -0.434987277f, -0.775240958f, -0.211939901f, -1.38954258f, -0.758589506f, 2.28374934f, 2.59603524f,
        1.07918847f, -0.141863227f, -2.19305325f, 0.869240642f, -0.461222351f, -2.52175045f, 0.792081892f, 1.37928843f,
        0.793029547f, -0.117935672f, -0.861813068f, -0.0743774474f, 2.41016126f, 0.254199952f, -1.57090127f, 2.79090834f,
        -0.0183314048f, 0.853278637f, 0.98469609f, 1.17249393f, -0.362105966f, -0.402075082f, -0.00851151254f, -0.217067078f,
        1.70142686f, 2.42093801f, -0.345925927f, 0.0582418777f, 0.953693509f, 1.16942275f, 2.46611667f, -1.65678251f,
        1.09098685f, -0.629615605f, 0.834049702f, -1.08140755f, -0.778128564f, -0.630556643f, -0.456386596f, -1.71866286f,
        1.54374278f, -1.53678274f, -1.31994236f, -0.555731237f, -2.08387613f, 1.2222147f, -2.72951508f, -0.866410017f,
        1.36382568f, 0.722107291f, -0.0353983343f, 1.0030756f, -1.22694302f, 0.603882849f, -0.222517848f, 0.411428124f,
        1.22677433f, 0.436836749f, -0.917648256f, 0.723312497f, 1.64764488f, -0.197069079f, 3.64287972f, 3.31316233f,
        1.72617388f, 0.48912099f, 2.9657917f, -0.833342195f, 1.01948917f, 0.452645391f, 1.2880795f, -3.02204394f,
        -2.29347563f, 3.71761537f, 1.84738433f, 0.528182149f, 0.942150414f, -2.18268228f, -1.00479722f, -0.563201964f,
        1.59393966f, -0.688442409f, 0.0799719915f, -2.33174706f, 3.82669163f, -1.70238221f, 0.980673194f, -0.693767607f,
        2.56084967f, 1.05392611f, -0.0717749894f, 0.706834614f, 0.841146052f, -0.37089029f, -0.280061871f, -0.957359374f,
        0.396411985f, 0.834516585f, -1.48885512f, -0.0600534491f, -0.398666143f, -1.39245975f, -2.13767791f, 0.588413656f,
        2.43971705f, 0.963271439f, -3.64201355f, -1.91362607f, -2.02744675f, 0.87456429f, 0.897580326f, 0.341089278f,
        -2.66375327f, 3.07511425f, 2.29009366f, 1.21406734f, -4.10220766f, -2.2411685f, 0.822333872f, 2.56332088f,
        2.19236922f, -4.72814465f, -1.7205025f, -3.04274201f, -0.256571144f, 1.67631078f, -0.0402146764f, -1.90258431f,
        -0.290613234f, 3.18990612f, 1.50231814f, 2.56619382f, 0.336596698f, -3.04822326f, -0.951369047f, -2.89946437f,
        0.353285372f, -1.46027648f, -0.180661604f, 1.40712321f, -0.811066985f, 0.311135411f, 0.00727857416f, -2.07070231f,
        -1.36371553f, -0.985397637f, 0.284448683f, 0.41403386f, 0.154634863f, -0.370484591f, -2.97014499f, -0.272656053f,
        -2.86544013f, 1.02159131f, 0.628611624f, 3.11629748f, 2.39115071f, -4.21950817f, -3.94688296f, -1.88957691f,
        -1.32192814f, 1.98866761f, 1.42796898f, 2.33410358f, -2.39900565f, 0.612760007f, 0.422411263f, -2.45912218f,
        -1.21227527f, 0.742478073f, 3.98259258f, -1.09611917f, -1.39316356f, 0.538865507f, 1.29259646f, 1.82893586f,
        1.07753432f, 2.50429535f, 2.47992897f, -0.412362695f, -0.432102501f, 4.92963219f, -2.49794674f, -1.51254809f,
        0.784991086f, -0.377534181f, -0.207736373f, -0.0499557257f, -1.21652699f, -2.4935317f, -1.31754744f, -1.00002217f,
        -1.32543826f, 0.096863322f, -0.202137485f, -1.54853499f, 0.310737818f, -1.19122946f, 0.218457311f, -1.05642164f,
        0.537363291f, 0.462017119f, -1.61272204f, -2.9043026f, -0.818566024f, 0.855675876f, -1.39586329f, -0.160995141f,
        -0.928514838f, -0.494951546f, 3.49935007f, -0.159185201f, 5.18282747f, -2.63647199f, 0.986046851f, 3.77678108f,
        1.23473918f, 0.471254468f, 0.0369513147f, 2.35320401f, -1.00928295f, -4.57204914f, -1.41138995f, -3.11798072f,
        2.11210132f, 1.04696941f, 2.56873989f, 2.37815356f, -0.0593871027f, -2.44124317f, -1.38495231f, -1.60197484f,
        -2.31900811f, 1.54269934f, -2.58577943f, -1.85781884f, 1.17500067f, -0.879004121f, 1.95141733f, -1.18831348f,
        -0.394992083f, -0.285908818f, -1.90137875f, 1.66225159f, 1.29331791f, 1.37241423f, 1.0614661f, -2.02165103f,
        -0.26481986f, 2.06115818f, 3.22785425f, 4.13387823f, -2.28593683f, -0.859795511f, 3.08192635f, 1.18166542f,
        -1.09503186f, 2.6474328f, 0.0879532993f, 3.82538986f, 0.196734354f, -3.81012011f, 1.83912241f, -0.207385853f,
        -1.79805398f, -0.871977925f, -0.349559695f, -0.60171783f, 0.953480542f, 0.2645953f, -0.759932876f, -0.490009636f,
        -1.16966188f, -0.0452937707f, -0.903747797f, 0.425793856f, -2.58470893f, -0.130942106f, -0.745287836f, 0.343702525f,
        -1.15760076f, 0.46887064f, 0.763190389f, 0.865204394f, 1.38409352f, -0.00615186663f, 2.74443889f, 0.502108276f,
        -0.374718308f, 0.0838574097f, 0.00362835964f, 0.766432047f, -1.95151603f, -2.7437675f, -2.00822425f, -1.74348247f,
        -1.55883324f, 2.63324785f, -0.976097703f, 1.02805567f, -0.974005997f, -0.321260601f, -1.14675307f, -0.182864666f,
        1.19933152f, 0.11261107f, 0.801630855f, -1.7174511f, -2.96346068f, -0.760120392f, 0.93172425f, 3.43575716f,
        0.981454074f, 0.842016816f, 0.520179689f, -0.523931861f, 0.786377609f, 1.65319812f, -1.55246496f, 0.820679486f,
        -1.20365024f, -1.60417438f, -0.052064795f, 1.59300983f, 2.13465881f, 0.63469857f, -0.917335927f, 0.964018166f,
        -3.63463664f, 0.899346232f, -0.47267434f, 2.33079648f, 4.08718443f, 0.271119863f, -1.04027927f, 1.99162805f,
        -1.42824864f, -1.39537501f, -0.617363811f, 1.76164985f, 0.328697979f, -0.465671301f, -2.71865177f, -2.40273857f,
        0.662517846f, -3.15881324f, -1.45685601f, 2.31022811f, 1.89835584f, 0.0954004079f, 2.41236782f, -4.75199986f,
        1.06486785f, 1.31559777f, -2.1253345f, -3.77913404f, -0.973792613f, 0.663066506f, 0.847817361f, -0.299463838f,
        -0.567431271f, 1.55518496f, 2.35980821f, -0.285863042f, 2.14153767f, -0.808491528f, -1.66992784f, 0.901534259f,
        0.387767047f, 2.48569059f, 2.16989565f, 0.96661061f, -1.68879819f, -0.810997367f, 0.231220663f, 1.71025491f,
        -2.50037456f, -1.49578536f, 3.69778299f, 1.1340785f, 3.26439905f, 2.18011975f, -1.00483835f, -0.277210772f,
        0.36491254f, -0.24923332f, 0.580006778f, -1.27012026f, -1.09545338f, 1.16691983f, -3.38814282f, 0.618468106f,
        3.85882711f, 0.572481692f, 2.64169002f, -1.09763324f, 1.39420438f, -0.98524332f, -1.60582089f, 1.07312262f,
        3.57697535f, -0.562712193f, -0.524029791f, 1.92271829f, 0.938381135f, -0.141397521f, 1.1424135f, -3.48095608f,
        -1.24995494f, 0.69298929f, -0.485770077f, -1.39271545f, 1.38456106f, -0.304751933f, 2.77697253f, 1.42603874f,
        -2.72512555f, -0.928150475f, 1.35296607f, 0.755201101f, 0.13457638f, 0.330673784f, 0.416175187f, -4.22304726f,
        -1.94959259f, -4.00393772f, -1.71712911f, 1.23268986f, 0.451067597f, 4.56720781f, 1.07704604f, 0.215158254f,
        -0.716436982f, -1.16120732f, -3.78246856f, 1.11881101f, -0.770465255f, 4.05255747f, 1.10025334f, -0.345930219f,
        1.1477778f, 0.189886868f, -1.87787271f, -0.611947954f, 2.40359712f, 0.131411821f, -1.01330113f, -2.37619257f,
        2.08653855f, 1.98787975f, -2.36922479f, 0.451560527f, -0.173222899f, -3.59892821f, -0.250914097f, -0.524125338f,
        -0.386115998f, 0.325120807f, 0.975311041f, 1.40663123f, -5.30971098f, 0.793417692f, -2.21287823f, 1.4046104f,
        -3.00461388f, 2.82950234f, 0.608173549f, -2.2515409f, 1.06227887f, 0.984267175f, -1.99113262f, 2.34038377f,
        -0.590614021f, 0.179145724f, 0.691078722f, -0.674954712f, -0.180544719f, -4.44266796f, -3.79931331f, 1.22809565f,
        -2.51795578f, -0.957209349f, -0.226466894f, -3.26763916f, 2.39377737f, 3.0970757f, -0.440876037f, 1.21207297f,
        -1.46092331f, 0.382608026f, 0.193537727f, 1.62082052f, -3.39808393f, 3.49066234f, -1.26706409f, -0.501010597f,
        -3.33915114f, 0.492040038f, 2.07732701f, 2.9204452f, -0.191432297f, -4.68970013f, 1.28539062f, -0.523163319f,
        2.08809376f, 1.21593118f, 3.13266659f, -1.13505733f, -0.144953415f, -1.639534f, -1.86593819f, 0.34303081f,
        3.94601059f, -2.40773153f, -0.795580685f, -3.85396457f, -0.135167837f, 1.317137f, -0.817571402f, -0.740621328f,
        0.199772388f, -3.40798664f, -1.52659309f, -0.742891073f, 1.22793293f, -0.778540492f, -0.925136328f, -0.955806673f,
        -0.745050848f, 1.25058734f, -1.25175202f, 1.24595308f, 0.0144105153f, 0.321389169f, 0.93568933f, -1.65216386f,
        1.64441168f, 0.494846344f, -2.42220426f, -0.712622344f, 1.31836045f, 0.507151306f, -0.149814993f, 0.0975550041f,
        -0.473359525f, 0.174660102f, 0.230102301f, -1.3226161f, 0.205210119f, -1.75961483f, 0.328393787f, -0.540028393f,
        0.834542632f, -3.89033723f, -0.558966994f, -0.897404969f, 2.47720456f, -1.97981381f, 1.49078715f, 3.48461556f,
        1.76097155f, -1.54384708f, 0.730348647f, 0.826156437f, -1.26919639f, -2.50086713f, 2.6342895f, -1.65419781f,
        -1.9561913f, 1.53730583f, -1.68730462f, -0.809952199f, 1.34046412f, 2.00131059f, 0.436323553f, -0.505729437f,
        -0.542832255f, -0.379132956f, 2.72992063f, 2.96845889f, -0.717286468f, 0.145749003f, 1.30933106f, 0.213771731f,
        -1.475196f, -0.519400895f, 3.69916368f, -0.636630654f, -0.486674011f, 1.23944819f, 1.28532493f, -0.171560943f,
        -0.726870179f, 1.39236772f, 2.11712956f, 0.461155325f, -0.758909404f, -2.99789166f, 0.377306134f, 3.00268865f,
        0.140973344f, 0.765858471f, -0.879277408f, 1.80015111f, -0.727337837f, -2.2148788f, 1.89472818f, -2.36532712f,
        1.49606848f, -0.773521125f, -0.995748281f, 0.752193332f, 1.31862307f, 0.587297559f, 1.06661594f, 1.02013505f,
        -1.40065122f, 1.20397317f, 1.06713462f, -3.60692286f, 1.63566387f, 0.128764406f, 2.41897035f, 0.401759058f,
        1.25291491f, -1.90791869f, 2.23916364f, -0.483761698f, -0.408127695f, 1.75212598f, 2.90621376f, -1.12698758f,
        2.45848036f, -1.02976501f, -0.89488107f, 1.61131084f, -4.000875f, 1.73510623f, 1.43535113f, 2.49358773f,
        1.03126264f, 2.86280394f, -0.983147144f, 2.33191347f, 0.206267431f, -2.01629734f, 1.80303383f, 1.57633591f,
        4.06066895f, 1.85434604f, 1.24318326f, 1.88738763f, -1.43964505f, 0.327236533f, -0.662854314f, -3.04864073f,
        -1.09331846f, -3.07596993f, 0.48107031f, -0.997137606f, -0.0298985951f, -2.51779175f, 0.489348173f, -1.44659674f,
        -0.220294565f, -3.36963701f, -1.78631735f, -0.307169944f, 1.28626359f, -0.760078251f, -2.34410095f, 1.61400187f,
        0.51457715f, -1.50769532f, -2.74061942f, -0.558429658f, -1.81159925f, 3.72740698f, 0.31128028f, 0.74674505f,
        -2.18934727f, 2.49407959f, 1.24100745f, 0.798530877f, 0.820450842f, 0.955828369f, 2.57473826f, 2.96762085f,
        1.9963088f, -0.633439958f, -0.134703785f, 1.15881217f, 2.26875162f, -0.357823372f, -1.13514841f, 1.1297729f,
        4.83479786f, -0.389911324f, 1.60441291f, 1.66854441f, -2.17301321f, -1.64346159f, 0.61649549f, -1.03228486f,
        1.35941875f, 1.66531932f, 3.30143023f, -0.159081578f, 2.75404072f, -0.965087414f, 0.697101295f, -0.0712632015f,
        -1.97652769f, -3.42786884f, 0.511836767f, -1.88226688f, 0.70283848f, -1.77388382f, -3.84993649f, 0.696121037f,
        -0.510783553f, -2.26693392f, -1.68484342f, 0.252480417f, -1.2214644f, -1.44467676f, 0.218801051f, 3.63040519f,
        -1.70073164f, -0.106822342f, 1.39359558f, -2.07516575f, 1.21188045f, -3.20860434f, -1.16119134f, 2.20195937f,
        -2.1996994f, 0.266217858f, 1.95868671f, 1.66891062f, 2.23467636f, 0.360914737f, 0.379878521f, -0.34262082f,
        -2.35558414f, 2.72621846f, -1.91827989f, -0.358430326f, 2.31721592f, -0.47907427f, -3.49268126f, 2.75898314f,
        -1.58721375f, 1.56797397f, -2.21201658f, -1.12491584f, 1.7436738f, 0.24815543f, 2.50036359f, 2.60832f,
        1.56006646f, 1.26193798f, -2.05716443f, 2.33256364f, 3.14433789f, -2.07861614f, -0.368701905f, 2.03828025f,
        -0.10133218f, 0.468029529f, -2.28142858f, 0.591977119f, 0.286127031f, 3.18589044f, -0.0487516597f, -0.259567022f,
        -3.13363481f, -0.252927542f, 2.11373305f, -0.249432996f, -1.06244206f, 1.09320223f, 0.741596401f, -1.10453463f,
        -0.741237521f, 0.691851258f, -0.303168476f, -0.00383308833f, -0.0573288947f, -0.259241462f, -1.23651803f, -1.41503203f,
        -1.48276877f, 1.10948277f, 0.159150466f, -0.24170661f, 0.550856173f, -1.53403413f, -0.308024377f, 0.65771538f,
        0.672938585f, -2.60165024f, 1.24988055f, -0.207853466f, 1.27296638f, -1.89493108f, -2.2127614f, -2.0396812f,
        1.43251884f, -2.66192436f, 0.201018706f, 1.52747917f, -1.3486917f, 0.995471954f, 1.75418842f, -1.2202059f,
        3.94956589f, -0.251281351f, -1.61137044f, 0.4543643f, 0.487440169f, 1.53281355f, 1.16859579f, -2.79297042f,
        1.00715303f, -0.788278878f, -2.47041965f, -1.05542958f, 0.227127016f, 2.96801758f, 1.34574521f, -1.1044445f,
        -2.50377798f, 1.67225349f, -2.58421898f, -0.85439688f, 2.73138261f, -1.04911244f, -0.971566081f, -0.583497226f,
        -0.322071254f, -2.70330954f, 0.0277455729f, 2.48034811f, 0.897832334f, 0.0856049433f, -0.0404796675f, 0.203339428f,
        -6.01057816f, -3.1200254f, 2.23962545f, 2.59237623f, 4.49437714f, -1.47772646f, -0.70998168f, -1.94058776f,
        0.452557087f, -1.73602557f, -0.684871435f, 0.28295067f, -0.20263043f, -1.08608997f, -3.73668361f, -1.31014931f,
        -2.78929996f, -2.46209121f, 0.828028083f, -0.836752176f, 0.713209152f, -3.10873461f, 3.60973954f, -3.15938044f,
        0.973225832f, -1.9531908f, -3.08337164f, -0.0230100583f, 1.60802174f, 0.779762626f, 1.70148647f, 0.374645859f,
        -1.70767272f, -0.753332973f, -2.20425844f, -1.2365818f, -2.23530436f, 1.70525634f, -1.43967581f, 2.19720745f,
        1.65711343f, -0.756810188f, 2.13860393f, -0.669341445f, 2.00308442f, -0.853115499f, 0.735327959f, -0.437582791f,
        -3.20738506f, 3.78352404f, -0.0849595368f, 0.80607605f, -1.66098809f, 0.400744855f, 1.22026289f, -2.91825032f,
        0.225543395f, 0.607025802f, 0.873858035f, -0.207990557f, 0.221994519f, -1.27674639f, 0.721459985f, 2.97167826f,
        -0.442616254f, -2.01643038f, 1.04776955f, 0.139008418f, 1.81131756f, -3.12631631f, 1.49548841f, -1.25385416f,
        -0.627713859f, 1.13572586f, 1.15314817f, -1.75843704f, 0.222211927f, -0.798843205f, -2.01119137f, -5.21485996f,
        -0.998992085f, 1.09813941f, -0.647587597f, 1.24587071f, -0.852996171f, -1.76220918f, 0.983821213f, -1.57823789f,
        -1.61964858f, 0.767509222f, -1.23643303f, -2.79184747f, 1.74929357f, 3.27665615f, -3.55568004f, -0.917284787f,
        -1.6075269f, 0.206818298f, 1.65311122f, 0.376458168f, 4.82239723f, 2.07093239f, 1.24725485f, -4.05413628f,
        -1.42695081f, -0.434776813f, 1.381163f, -1.7612443f, -2.51439166f, 0.428910881f, 0.166196644f, 0.804436743f,
        0.110757492f, 0.370454341f, -0.631732464f, -4.49079227f, -3.61022758f, -0.449131012f, 2.0153327f, 1.22369432f,
        -0.107968651f, 0.481849253f, -3.24409652f, 3.64068294f, 1.23811126f, 1.28717387f, -0.906434238f, -2.2205801f,
        0.0896192566f, 0.250194192f, 3.13917446f, -1.01633191f, 0.220382005f, -1.32573998f, -1.06178617f, -1.34331834f,
        -0.0970663652f, -0.010692751f, -1.23391724f, -1.66447127f, 0.624262869f, 0.973970473f, 0.309675068f, 2.07169199f,
        1.74352598f, -3.51201534f, -1.2316432f, 0.107775114f, -1.08375788f, -0.077737309f, -2.03434944f, -0.800763249f,
        -1.22607279f, -0.9283095f, -2.66735101f, -1.05119932f, -0.878230989f, -0.0733123794f, 1.8341918f, -1.28915679f,
        0.286404133f, -1.93664801f, 0.0811795443f, 0.683505118f, 1.66049457f, 0.127516404f, -0.409380078f, 1.45217311f,
        0.253783554f, -0.505374789f, 1.24263239f, 0.30884248f, -1.34489095f, -2.39163733f, -1.53197193f, 0.682883978f,
        -1.89551258f, -1.53053808f, -2.20244288f, -0.762952507f, 0.630189836f, -0.725136518f, 3.51579642f, -1.01671863f,
        0.317676067f, 1.87757301f, 1.07850564f, -0.355086416f, -0.991609454f, -3.29031038f, -1.78978908f, -3.18312716f,
        -0.775949657f, -0.467535645f, -0.336584985f, 0.582868636f, 0.792003751f, -0.616982579f, -0.176707774f, -0.462981701f,
        -1.34002352f, 1.40178323f, -0.229824066f, -0.891821384f, 0.0359283648f, -0.146082446f, -1.25184429f, -0.0698858202f,
        0.627061009f, -1.32273197f, -0.951291502f, -2.01663446f, 0.167754084f, 0.662692189f, -1.67775822f, -1.12828636f,
        1.15453148f, 1.15500057f, 0.22759968f, 0.0496959016f, 1.96250272f, 1.47640145f, -1.55546629f, -0.137974322f,
        0.0897085071f, 1.48139668f, 0.217728481f, -0.387081742f, -2.94536352f, 0.668452621f, -2.1420753f, -1.37585568f,
        1.17550004f, 0.954936922f, -0.035272453f, -1.36817563f, -0.9692958f, -1.74451137f, -2.05733585f, 1.52085197f,
        -1.58733094f, -0.888748825f, -1.08309114f, -1.72902513f, -1.15268815f, -1.5115726f, 0.762303472f, -0.276754588f,
        0.448248178f, 1.40349257f, -1.91878998f, -1.53556168f, -0.891652405f, -0.344689131f, 1.01500762f, 2.36667347f,
        0.201967672f, 1.12568903f, -0.652160347f, -1.38571453f, 0.0919901207f, 2.02576494f, -1.16595006f, -0.767570734f,
        -2.68331385f, -0.0328050219f, 1.66677332f, -1.58329666f, 0.867581427f, -1.81186128f, -1.28595138f, -1.21060932f,
        -2.32597303f, -1.27665198f, 4.96683884f, 4.41503048f, -0.870860875f, 0.281790227f, -0.140706897f, -0.21655257f,
        -0.772902429f, -1.81203377f, 1.89403343f, -0.240053937f, 0.88278389f, -0.573183954f, 0.889925957f, -0.756729722f,
        1.64804363f, 0.453024209f, 2.31351519f, -0.872039735f, 1.08098483f, -1.99245858f, 0.20648253f, 1.14833558f,
        -0.638586819f, -0.645969152f, 2.33965302f, 2.0734992f, 0.564885378f, 3.56220889f, -0.392631024f, -0.911815941f,
        -1.17018437f, 0.119298264f, 1.61460996f, 0.156143844f, -1.70032108f, 0.780863702f, -0.457780004f, -0.34476015f,
        0.633306682f, 1.58752835f, 1.65141571f, 1.15352273f, -1.37190306f, 2.00000906f, -1.36419272f, 0.063168548f,
        -2.36681867f, -2.5328064f, 0.57240212f, 3.32067943f, -0.0355695039f, 1.87236714f, 0.741241693f, -2.42412758f,
        -0.99671495f, -0.502468824f, -0.492873311f, -1.67442441f, -3.17129803f, 0.0898048505f, -2.77314186f, -1.54458737f,
        -1.32523179f, 2.26450515f, 1.25063062f, 1.59886909f, -0.639787078f, 0.731266141f, -0.805732489f, 0.643433094f,
        -0.202498749f, 0.559687078f, -2.74635959f, 1.41922534f, -1.15097618f, 1.17711997f, 2.27529454f, 2.03807831f,
        0.663576782f, 1.76768255f, 3.34331632f, 2.09886813f, 4.40035295f, -1.92221618f, 3.10010386f, 0.170117617f,
        1.3117044f, -2.27062654f, -2.94726062f, 3.97962809f, 2.2650001f, -0.421671361f, -1.02238703f, -1.48871589f,
        -0.316960365f, -2.28811479f, 2.66249919f, -3.06966996f, -1.37170744f, -0.0889903232f, -0.507591009f, 0.962758601f,
        3.73026204f, -0.604787767f, 3.42580748f, -0.958705485f, 2.58530378f, 1.58394754f, -1.73737097f, -1.17916965f,
        0.508152783f, -2.82928061f, -0.367158622f, -4.23444462f, -3.44565892f, -1.49336004f, 4.16744089f, -2.5915637f,
        -2.44744945f, -1.70431018f, 2.08569169f, 1.18100917f, -0.689550281f, 2.56362748f, -3.5101428f, -1.75577819f,
        2.39168406f, 1.7951107f, -0.690765619f, -2.29975653f, -1.54118669f, 2.26161051f, 0.446742833f, -2.57134128f,
        1.11961687f, -3.37617421f, -0.890178442f, -0.218576893f, 1.67537081f, -0.727834582f, 2.19865441f, -2.60996222f,
        0.166195184f, 1.48373532f, 1.28151083f, -0.852819562f, 1.12705326f, 2.55069184f, -2.98904991f, 3.16497707f,
        -2.0154736f, -2.63295817f, -1.52877712f, 0.520796955f, -2.62439656f, 4.39437199f, -1.53369641f, -1.1436615f,
        -0.0619551688f, -1.60143685f, 0.691976607f, 2.55395269f, 0.717057168f, -0.139735162f, -0.0131274862f, 0.29210034f,
        0.985830307f, 2.89739108f, -1.64559031f, -0.679883659f, 4.34790707f, -1.36975384f, -2.85909581f, 1.84073555f,
        -0.36921525f, 0.300434768f, 0.889771581f, 1.21771443f, -1.99851871f, -2.33043289f, 0.703984261f, 0.778359711f,
        2.78012943f, 2.04983687f, -1.69338107f, -0.545907259f, 0.505406678f, 1.84505701f, 1.84946728f, -0.732262194f,
        -1.01880848f, 0.850268066f, 0.578303397f, -1.70603383f, -0.744795918f, 1.16084874f, 1.35225761f, -1.37621009f,
        -0.11520914f, -0.940767765f, -0.0763634592f, 1.69553769f, -0.323788255f, 0.914251626f, 0.696134329f, -0.400981933f,
        2.39254975f, 0.00343285198f, 1.15481234f, 0.0899470076f, 0.755954385f, -0.536820352f, 1.24962831f, -1.68645251f,
        2.64736438f, -1.99614799f, -0.387252748f, 1.4908694f, -0.725225091f, 0.906552613f, 0.0265178494f, 2.32050276f,
        0.73817277f, -1.05321658f, 1.31036317f, 0.002381108f, 0.104294628f, 0.790938556f, -2.9268291f, -2.75029016f,
        -0.480826169f, 0.226138949f, 2.31028152f, -1.57662106f, 0.390380859f, 1.41362047f, 1.11116195f, -1.94979382f,
        -0.170747772f, 1.76119339f, -1.69378579f, 0.807986677f, -0.279643565f, 0.676992834f, 0.722030878f, -0.834439933f,
        0.042678494f, 1.8628701f, 1.84039092f, -2.12171555f, 2.32339692f, -3.12924242f, 1.73135352f, -1.31221139f,
        -0.213905603f, 1.45766938f, -1.37615573f, 1.11774933f, 0.938909054f, 0.664295435f, 2.92662311f, 1.00775445f,
        -3.37618232f, -0.694423079f, -1.1972518f, -1.48495698f, -1.15105867f, 0.0661952347f, 0.378500015f, 0.682194173f,
        2.45769119f, 2.26004601f, 4.34683037f, 2.22272015f, 2.54025078f, -0.294396311f, -0.448349088f, -3.02489209f,
        -0.727193594f, -1.62486935f, -0.223444223f, 1.22229517f, 1.43185759f, 1.29172528f, 0.301993966f, -1.64557421f,
        0.616853774f, 2.61000133f, -1.86021864f, -3.01379061f, 2.0615406f, 2.84689641f, 0.808657706f, 1.62187934f,
        -1.57934725f, -1.71317065f, 1.78811979f, -2.41228747f, 1.65645397f, -1.53733265f, -1.08987522f, 0.691482663f,
        -0.497451276f, 4.00851154f, 4.05378771f, -3.19728971f, -0.08199545f, -0.671496809f, -3.28922582f, 1.61054063f,
        -1.72532463f, -4.58230257f, -0.662844479f, -1.57397425f, 0.186423168f, 2.44603944f, 2.1744287f, 0.743651986f,
        2.27508068f, 3.28967977f, -2.87750363f, -2.39879751f, -3.78935409f, -0.0741006359f, -0.722167015f, -0.969668269f,
        2.10160685f, -1.7836895f, 1.64558399f, 0.337888956f, 2.87592554f, 0.802670598f, -2.0682857f, -2.02775669f,
        -1.52447879f, -1.64141548f, -0.0779312626f, 3.18570757f, 2.82930088f, -4.23281336f, -1.85598326f, 0.91907084f,
        4.06238556f, -1.44842076f, -0.284359246f, 0.677063167f, -1.63235617f, -2.09530997f, 0.0638353899f, 2.10606456f,
        2.02405071f, 3.49230766f, -2.02214622f, -1.13551915f, -0.537940621f, -0.507673442f, -0.211273596f, 1.17001069f,
        2.55126262f, 1.17143667f, 0.894584715f, -0.0702243224f, 1.59311938f, 3.20936131f, 3.5190289f, -2.09860182f,
        -1.04010117f, 1.03358841f, -1.38211262f, 1.1481427f, -1.35358632f, 1.4562695f, 2.57742357f, 1.53283823f,
        -0.472951919f, -0.111930348f, -0.201646417f, 1.84075689f, 1.8099407f, -1.13358617f, -0.535666764f, 2.41540766f,
        -0.9193362f, -0.0465842187f, -0.161684513f, 0.639424026f, -0.126098111f, 0.816853762f, -2.66266632f, 0.0375095978f,
        0.162058666f, 2.94085526f, 0.575618088f, 0.21766904f, 1.28356934f, 1.95723712f, 2.51350212f, -2.48692417f,
        1.81453645f, 0.558514535f, -1.00451481f, 1.93746459f, -1.58993316f, 0.158106238f, 1.48689091f, 1.13329279f,
        0.247694269f, -3.21906757f, 0.567911446f, 3.30702949f, -2.23216009f, 0.166231379f, 3.47960329f, 1.67456639f,
        2.31587505f, -2.49697733f, 0.184722722f, -2.76446366f, 0.255060226f, 0.692348301f, 1.65325165f, -0.112057619f,
        -2.89711833f, 1.56087255f, 2.26910067f, -2.73340487f, 1.40165234f, 0.92729336f, 0.717493653f, -0.425315112f,
        -1.59806359f, 0.286894172f, -0.0636216626f, -0.359684527f, 0.604576051f, -1.8790462f, -0.615244746f, 1.12062073f,
        -1.18610978f, 1.65144861f, 0.887987018f, -0.154565781f, 0.452445716f, -0.0532253049f, -0.357941478f, -0.351215333f,
        -0.0656649247f, 2.27731514f, -0.0179753844f, 1.57617044f, -0.267237037f, -0.295663148f, 0.862427592f, -1.62245309f,
        -1.6512326f, -0.555122077f, -0.030867435f, -0.957118392f, 2.56403375f, -4.57189465f, 2.81126046f, 0.799562037f,
        0.0758572295f, -1.68470299f, 0.462001532f, 0.576167822f, -1.60152698f, -1.67856646f, 2.11862016f, -1.66310275f,
        -2.67978787f, 1.3937149f, -2.86328602f, -0.143509209f, 1.69240773f, 1.95862412f, -1.27039027f, -1.54785299f,
        0.737400413f, -0.416766226f, 3.26489568f, 0.0814095065f, -1.59585142f, -1.41896415f, -1.69745541f, 0.106574684f,
        -2.94266176f, 4.0711813f, -0.805715084f, -1.21312165f, 1.37797177f, -0.12185359f, -1.32176685f, 1.45070851f,
        -0.652569532f, 1.18131483f, -0.532228649f, -0.445056558f, 0.829575539f, -0.642024994f, -0.537860394f, 2.12736535f,
        2.76444626f, 0.220446661f, -1.01803875f, 0.530155063f, -2.71318936f, -2.35871148f, -1.00826943f, -1.87278783f,
        -1.03203499f, 0.144432321f, -1.97864544f, 0.975175679f, 0.648204684f, -0.0531457104f, 1.05761361f, -1.08392859f,
        -0.208812833f, 0.615331411f, -0.833956599f, -1.83046353f, 2.68001223f, -0.813534737f, 1.65453076f, -2.06173491f,
        -0.332654297f, 1.4560591f, -1.70362127f, 0.868111134f, -3.57634306f, 1.84554148f, -0.475164115f, -1.34100246f,
        -3.14937067f, 3.13636971f, 1.33605349f, -0.319255054f, 1.86452794f, -1.55339503f, -1.18177748f, -1.91338408f,
        -0.318172902f, 0.232650653f, 3.70940638f, 2.03288174f, 0.36868006f, 3.39756417f, 0.469688237f, -2.34563041f,
        2.44135046f, -0.139765248f, -3.74249816f, 0.755833149f, 0.0318488441f, 2.25989318f, -1.9631474f, 3.00528264f,
        0.617441475f, -1.76895416f, 0.386403203f, -0.948233604f, 0.359829426f, -3.4698813f, -1.99179411f, -1.73659074f,
        1.09845877f, -0.476455301f, -0.499629915f, 0.716825426f, -0.73374784f, 1.23161602f, 2.80815291f, -1.50182438f,
        -0.547453165f, -0.463531256f, -1.70444369f, -0.405472577f, 2.85348845f, 0.939360738f, -3.70656896f, -0.767502308f,
        1.1745764f, 1.00819087f, 1.58603764f, -1.13909686f, -1.04269373f, -2.02233219f, 2.41325521f, 3.49640989f,
        0.612398505f, 0.822533667f, 1.60891986f, 2.74167824f, -0.759643853f, -1.04962015f, -0.602652609f, -3.63785434f,
        -0.890217781f, -1.46580768f, -0.858429611f, 0.736749291f, -3.32035041f, 1.48916841f, -0.896616995f, -1.86513519f,
        -3.41973639f, 1.12846732f, -3.53743815f, -2.00197649f, 0.974106848f, 0.087454997f, -0.517088473f, 1.01422119f,
        -1.59459984f, 0.727672696f, 0.973654628f, -2.26844192f, 1.77011549f, -1.17931533f, 1.6544323f, 1.7961098f,
        0.620345235f, -1.86826622f, -1.55050683f, 0.763958752f, -0.925893724f, 1.70733261f, -3.83106899f, -2.99728251f,
        -0.615999043f, -0.602331579f, -3.7070365f, -2.74590516f, -3.09732556f, 0.458949327f, -0.476615071f, 1.34209716f,
        3.67521477f, -1.42641032f, -0.750909567f, 1.93644416f, 1.24779558f, 1.84163046f, 1.31558692f, -0.2781955f,
        -0.607720017f, -2.88260746f, -0.312171191f, 0.96355319f, -0.350866884f, 2.47762537f, 0.990590572f, 2.70729733f,
        -0.22997506f, 1.48013949f, -2.34587288f, 1.60219967f, -2.35393572f, 0.097672157f, -0.696763098f, -0.6098032f,
        -0.412846386f, -2.9029367f, -0.694722235f, 1.19371641f, 2.51970553f, 0.554105163f, 2.13809729f, 1.39218128f,
        -1.54898453f, 2.04464364f, 1.71915889f, -1.92591465f, -0.183904782f, 1.4289217f, -1.50232482f, -2.23917007f,
        -0.835911214f, -1.38225281f, 2.82786393f, 1.83765614f, -1.66574502f, 1.17835033f, -2.32304502f, 1.1835624f,
        -0.309498399f, 0.429841489f, 0.24287793f, 0.656282067f, -0.840435028f, 0.332389086f, -2.36023235f, 1.60028565f,
        -0.0338898823f, 1.52260673f, 2.80462313f, -2.68388224f, -1.29663515f, -0.711561084f, 0.4246369f, 0.268773288f,
        1.078179f, -1.85514224f, -2.79618883f, -0.540207386f, 1.48873663f, 1.17396843f, 0.337566763f, -0.174733192f,
        0.646624207f, -0.201296464f, -2.40985227f, 0.316873223f, -1.63996446f, 2.04930043f, 0.700118244f, 1.66972995f,
        0.964821041f, 0.493300647f, -2.14493895f, -1.49623215f, 2.59666729f, -2.88138103f, 1.21762931f, -0.826788902f,
        0.0331238545f, -2.20256162f, -0.391166598f, 0.585601687f, 4.20581722f, -0.35030821f, -0.0553928614f, 1.62155056f,
        -0.828273594f, 1.07708311f, 2.4151597f, -4.45387363f, -0.614918053f, -1.27896464f, 2.72624803f, 0.564759374f,
        1.60369718f, -0.692885458f, 2.94592977f, 0.287540078f, 0.00534526492f, -0.159716472f, 4.22349024f, -1.75438595f,
        -1.28205204f, 1.23949242f, -1.23173285f, 1.0872972f, 2.11018109f, 1.69876695f, 0.747917473f, 2.34881759f,
        0.845489502f, 0.767729044f, 1.77519178f, 3.28300023f, 2.7461462f, 1.25558913f, -0.363438457f, -0.38419044f,
        -2.09182739f, 1.15640008f, 1.34398425f, 0.221513227f, 1.27006555f, -1.7022568f, 1.61005926f, 0.748802066f,
        3.64115357f, -0.97469151f, -1.69698596f, 1.53532135f, 3.12742209f, 0.528999567f, 1.37839532f, 2.24101305f,
        0.885159254f, -2.69845319f, 3.87269449f, 0.275795102f, 0.849178195f, -1.56813943f, 0.588828981f, 1.94102466f,
        -0.100425147f, 2.85658479f, -0.0666079223f, -2.71184373f, 1.81441379f, 4.39661598f, 1.55848658f, -1.97510731f,
        -0.346397102f, 2.32457519f, 1.01424825f, -0.0515195243f, 1.25323868f, -2.34508395f, -0.459864825f, 0.358388841f,
        2.9942112f, -0.427023649f, 1.12906897f, -3.40093827f, -2.97867823f, 0.328641981f, -2.68744636f, -2.80199814f,
        1.18822956f, -0.569875538f, 0.554112196f, 1.56747472f, 2.11020398f, 0.596172452f, 3.5484376f, 0.972614527f,
        2.19614506f, 0.196858361f, 0.0843435153f, -1.83223152f, -1.83590758f, -0.0885876194f, -2.40522981f, 1.58925426f,
        0.580254138f, 0.895442069f, 0.775895655f, -1.62168872f, -1.93312562f, -1.35501111f, -1.67679906f, 2.31993175f,
        0.245039582f, 0.0511178561f, -1.05819678f, 0.284984291f, 0.954049528f, -0.98447144f, -0.457352817f, -0.66665858f,
        0.0393119492f, 0.702739716f, -2.01499295f, -2.4322741f, -0.803229094f, 1.97111583f, -2.05510855f, -0.661757171f,
        -1.06362331f, 0.832030714f, -1.10839748f, -2.76298141f, -0.159462824f, 1.34848809f, 1.33238852f, 0.8990345f,
        -0.886778593f, -2.82290483f, 0.065893963f, 1.826998f, -0.71200031f, 3.03978348f, 2.2023344f, -1.85358f,
        -0.534832597f, 0.47580111f, 0.133853316f, -1.09453523f, 0.5527246f, 0.0443595797f, -0.591091812f, -0.981420636f,
        -3.27865219f, -0.626115739f, 0.631505728f, -2.74563479f, -3.61085701f, 0.971821964f, -0.540146708f, -0.86678791f,
        2.59731555f, 3.40240598f, -4.15257168f, 1.49443078f, 3.74552894f, -0.0106989909f, -1.51808894f, -0.0121349161f,
        -1.082515f, -1.17788661f, 1.46228743f, -1.43323255f, 1.02314806f, 1.05303168f, -0.107312642f, 3.14060163f,
        -1.8550297f, -0.530344784f, 0.689192832f, -2.59951901f, -3.41269374f, -0.137550503f, -4.41228104f, 0.699302733f,
        1.05014491f, -2.71052265f, 0.331216395f, -1.21297026f, -1.69265652f, -0.311658472f, 2.1483953f, 0.352763861f,
        1.88406646f, -1.60106874f, -1.88120759f, -1.0314393f, 1.3278302f, 0.00803918857f, 0.139644355f, -1.84453821f,
        1.19653511f, -3.64012051f, 2.19698048f, -2.62131071f, -0.872910082f, -2.84487939f, -1.98494685f, -1.40273559f,
        -1.16828942f, -2.0514667f, 2.5045526f, -0.379231155f, 3.53640437f, -2.01482534f, -3.65364575f, 1.2642684f,
        -1.16188204f, 0.0884387195f, -0.525586843f, -0.07754457f, -1.70170009f, -0.688034475f, -1.85941672f, -0.167653546f,
        -0.203158498f, -0.281765997f, 0.379025429f, -1.51714146f, -1.46674848f, -2.62865996f, 0.588960111f, -0.784299314f,
        1.25693476f, -2.68416786f, -0.274781287f, -0.0962516889f, -0.814620554f, 2.66566277f, -0.315117747f, -1.06334925f,
        1.0078752f, 1.6595751f, -0.0730660707f, -0.903818369f, 0.428870618f, -0.849476814f, -1.0610857f, 0.34513858f,
        1.75250173f, 0.211904183f, 0.289099634f, 0.143357813f, 0.0888290852f, 1.10120857f, 0.406747043f, -1.75391459f,
        3.36984611f, 3.34474134f, 1.28723121f, -1.14579368f, -0.975022078f, 2.39300466f, -0.837214649f, -5.77931738f,
        2.83719611f, -1.47303522f, 0.0457652472f, 1.74448109f, 2.25669813f, 0.134816423f, 0.106799208f, 1.61541426f,
        1.2872715f, 3.19148135f, 0.122799747f, 0.259080887f, -1.15550566f, -0.803731978f, -2.23266387f, 0.0403569601f,
        1.53350186f, 1.30512273f, 3.21682358f, 3.09414434f, -0.927516639f, 0.882565379f, -2.42843318f, 0.092624411f,
        -1.53653598f, -3.25757384f, 0.611111283f, -1.83835781f, 1.47528911f, 0.0673672855f, -3.13106728f, 1.92190039f,
        0.735583723f, -1.46666837f, 2.81653786f, -1.14908004f, 1.20832253f, 2.59775424f, -0.0672565997f, 0.221062347f,
        2.65569091f, 2.42880988f, 2.52439117f, -0.751764834f, -0.611510038f, -2.08205223f, -1.41014433f, 1.61949074f,
        -4.37673855f, 0.0919044986f, 0.697861612f, 2.11479163f, 2.21628284f, 0.283432573f, 1.22818267f, -2.15201974f,
        -0.789860606f, 0.921619713f, -1.60251176f, -1.45971286f, -0.518890858f, -0.0503753573f, -1.33579445f, 1.58845901f,
        -3.32047319f, -0.880904436f, 1.96042335f, 3.01861715f, 1.21017396f, -0.408411682f, 4.72643614f, 0.936054289f,
        -0.275678843f, -0.785217941f, -2.01521039f, 0.797558665f, -2.28306031f, -1.11921489f, -1.14538622f, -0.922996819f,
        -0.255140603f, -1.38052976f, -0.571562946f, -0.381528318f, 2.26629782f, 1.32759273f, 1.06448865f, 2.2402873f,
        -0.132931173f, 1.43522298f, 0.0642274171f, 2.22836947f, 1.84258854f, -0.224731088f, 4.05106068f, 0.266870439f,
        -2.39425349f, 2.65905595f, 0.455030233f, 2.02910233f, 0.376257151f, -3.28360105f, -0.217342436f, 0.26435113f,
        -1.30465019f, -0.0372002237f, 1.54632699f, -1.31027842f, 2.35503125f, 0.686939597f, 0.0407319739f, 3.18199754f,
        3.7805078f, 2.05746841f, 0.687672913f, -1.2335974f, -0.934047401f, -0.148071617f, -1.96063042f, -1.52561903f,
        -0.735476196f, -0.218778014f, 1.0966475f, 0.280006647f, 2.24331021f, 0.712651849f, -0.643881798f, 0.349296957f,
        -0.748528123f, 3.0716114f, -0.928569078f, 0.042892769f, -1.97013295f, 0.881398797f, -3.55974245f, -2.67455721f,
        -0.0555763356f, 3.45485139f, 0.673554301f, -0.049968604f, 0.186481521f, 0.165841773f, 1.25799525f, 0.144259647f,
        -0.858892322f, -1.67915928f, -2.55375004f, -2.0003953f, -0.704294741f, -0.5520823f, 0.163398668f, 2.438308f,
        -1.02681756f, -0.955837369f, 0.475111693f, 1.73406363f, -0.643279493f, -1.02674901f, -0.0794809088f, -1.56960666f,
        -2.65202594f, -0.600282311f, 1.84067309f, -0.181328923f, -0.801567674f, 1.49219453f, 2.35938215f, -0.166579574f,
        0.0965957344f, -0.632286787f, 1.28424644f, 1.47343647f, 2.42226601f, 1.04496706f, -0.431998581f, -0.69180572f,
        0.00191750494f, 1.06621397f, 3.37839603f, 1.5150907f, -1.46880174f, 1.66015804f, -0.590766847f, 1.77889884f,
        3.61896038f, -0.198570162f, -0.771564543f, 2.12943363f, 0.0266786553f, -1.5368489f, -1.07050788f, 3.68950868f,
        -0.104384921f, -3.08994603f, 1.64139235f, -1.55211186f, -0.221217394f, -3.47746849f, 0.201500714f, 0.388237655f,
        1.89296162f, -2.53463745f, 0.333266675f, 1.26995826f, 0.643695235f, -3.23546815f, -0.486925125f, 3.01431346f,
        -0.654546142f, 0.468384713f, 0.394720942f, 1.81691754f, -0.914456367f, 0.91909492f, 0.391537488f, -3.15333009f,
        0.115788013f, -1.67490292f, 1.36200893f, -1.23002613f, 1.70731628f, 0.310840249f, 0.00719515327f, -0.174306944f,
        3.4904809f, 1.42638254f, 0.712652981f, 0.978754878f, 2.98219848f, -1.27277184f, -1.65882421f, 1.00769365f,
        2.14029431f, 0.522931457f, -2.63807487f, 0.958232164f, -3.04798269f, 0.113565743f, -3.01872373f, -0.102657162f,
        -0.72697717f, 2.61332059f, 2.14222336f, 1.04987979f, -1.36168408f, -0.385878742f, -1.82113612f, 0.656527996f,
        0.487189561f, 0.646440327f, -0.821302176f, -0.594822168f, 1.30998003f, 0.892858982f, -1.23788989f, 2.55606699f,
        -0.68580389f, -0.554478288f, 1.93639445f, -2.27540779f, 1.10434377f, -0.250899613f, 0.745500982f, 0.644748509f,
        0.0220602024f, -0.981773973f, 0.0242185257f, 0.507943988f, -2.19260097f, -1.61406851f, -1.52947009f, -1.8410908f,
        -0.843770146f, 1.53479755f, -3.92343974f, 2.03182912f, -1.37335515f, -2.82097244f, 0.940433502f, 1.34950542f,
        1.02693594f, 3.03749585f, -0.316674441f, -1.08433115f, -0.476146132f, -0.188491821f, -0.822229087f, -1.51846182f,
        -0.159758791f, 0.0532382689f, -2.09442496f, -1.03817165f, -1.19686806f, 1.37796366f, -2.1899817f, 0.985989749f,
        -1.03442013f, -0.167061508f, -0.308584362f, 0.797511995f, 2.22572899f, -0.889057994f, -0.0888854787f, 3.00392413f,
        2.16821051f, 0.574105382f, 3.5589807f, -0.141723275f, -0.918684065f, 0.950400412f, 2.70384407f, -2.72119212f,
        -1.8995018f, 2.18487334f, -2.18350792f, -0.0462384224f, 1.56293035f, -2.88845563f, -2.91536641f, -3.74435687f,
        1.21798551f, 2.31177187f, 0.270736277f, -3.0231111f, -0.875171781f, 2.41159081f, -2.29164553f, -1.52861464f,
        -0.917571068f, -2.30300474f, 2.46447968f, -0.811082721f, 1.39860141f, 0.112746373f, 1.24061489f, -1.51256096f,
        -1.76611102f, -1.79814637f, 1.82393515f, 0.633320093f, -0.712703466f, -1.27722299f, 0.468540519f, 0.00849081576f,
        0.0731164515f, -1.88269746f, -1.85538399f, 4.48412275f, 2.02181482f, -0.246248305f, -5.12245941f, 0.903877914f,
        0.383630335f, -0.312728226f, -1.119066f, -1.23617733f, 0.242224351f, 0.828671992f, -2.2876513f, -0.884096444f,
        -2.3340888f, 1.4954977f, 0.0789220631f, -0.535407543f, 0.927996755f, -2.42337632f, -0.28289488f, -0.656851947f,
        -4.05379915f, -3.60376978f, -2.5185256f, 2.59247041f, 3.71234465f, 0.00939985737f, -1.94195437f, -1.43480158f,
        0.617786527f, -4.47660923f, 1.27632499f, -4.03052902f, -1.23917556f, 4.03384066f, 1.58667302f, -1.53064227f,
        3.30453753f, 3.1335721f, -1.29004419f, -1.19214296f, 0.0259592291f, -0.0361926444f, 0.621792495f, -2.6377728f,
        -0.293330431f, 0.88880223f, -1.49088204f, -2.14738417f, 2.65763807f, 0.0870273709f, -2.75768876f, -1.9766196f,
        0.733039796f, 2.23904443f, -1.80500412f, 1.8839246f, 1.03153384f, -2.14318442f, -3.30456257f, -1.64773643f,
        2.18782806f, 5.50644445f, -0.192856908f, -0.931339204f, 1.26064122f, -1.16131449f, 2.88813066f, 0.286846966f,
        -0.665763557f, -0.41339761f, 0.435241252f, -1.7035377f, -2.06138825f, -0.156037182f, -1.78320539f, 0.430807829f,
        -1.17495072f, -0.0967129767f, 2.05873847f, 5.2263937f, -0.852623105f, -4.38735723f, 2.22301126f, 1.20693791f,
        -0.416930169f, 0.446164191f, 1.29448462f, -0.0201926026f, 2.17932248f, 1.19807839f, -0.884298861f, 1.84229338f,
        0.166009992f, 1.38589478f, 0.0417724811f, 1.86986327f, 3.25445485f, 0.981910825f, 1.14114118f, -2.00161338f,
        3.75448561f, -0.579228938f, -4.91621971f, -3.56471372f, 1.48091733f, 0.544727743f, -4.5378356f, 0.504627109f,
        -1.43333566f, -0.308138758f, 0.300768256f, 0.0681102872f, 3.41100645f, -4.85302305f, 0.744688213f, -0.397197098f,
        -0.0726706013f, 0.777547836f, 0.27331239f, 1.33590961f, 1.13648593f, 0.491326272f, 0.221091852f, -0.767149806f,
        -0.969445169f, 0.108515114f, 1.16071558f, -0.984548092f, -1.28480494f, 0.53170073f, 2.15172672f, 0.862058222f,
        2.29037261f, 1.18379128f, -0.758596778f, -1.58929002f, 0.39340046f, 0.232700825f, -0.805136561f, -0.316262871f,
        1.07819891f, -0.181856006f, -0.216593906f, 0.130206168f, -1.43763685f, 0.372552991f, -2.40260911f, 0.27455011f,
        1.55685675f, 0.222549975f, 0.7352615f, 0.933023393f, 2.14139795f, 0.341858119f, 0.740360558f, -0.193806693f,
        3.01837015f, -1.14055943f, -0.418733656f, -0.0328348838f, -0.450340509f, 0.470763624f, 4.52745152f, 1.17254734f,
        -0.178063095f, 0.872951269f, 4.29215336f, 0.252330959f, 0.0839475989f, -3.07703352f, -1.19775999f, 0.392995983f,
        -0.529036939f, 2.79381776f, -0.461324334f, 0.698608696f, 1.99233568f, 1.51637053f, 0.159951642f, 0.193451926f,
        -1.98766887f, -3.5884409f, 0.311998785f, 1.89798236f, 2.04938245f, 0.214798465f, -0.929780245f, 0.105520464f,
        0.0251285136f, 1.97490203f, 0.225381076f, 0.310633004f, -1.78782499f, -0.527503669f, 1.04191446f, -1.22009659f,
        -1.19476008f, -2.13945127f, 2.31580806f, 1.09920466f, 2.4241991f, -2.15792322f, 2.12330961f, -0.630666435f,
        -0.0767020136f, -0.307387799f, 2.86878204f, -3.53155088f, 0.759671032f, -0.334401131f, 3.76385283f, -2.04288793f,
        -1.7426343f, 0.740449667f, -2.29037023f, -1.058514f, 0.52475369f, 0.723659873f, -2.4661665f, 0.564109325f,
        0.52639842f, -1.74872136f, -2.41823268f, 0.873927832f, -2.11283255f, -0.984017789f, -0.343554735f, 4.13843346f,
        -0.529234231f, 0.552607417f, 1.44632435f, 1.36866438f, -1.17940247f, -2.05532026f, -2.77416801f, -3.00256538f,
        -0.226088271f, 1.51981568f, 1.90652359f, -2.18282223f, -2.25999546f, 0.344928533f, 2.27942228f, 0.189877272f,
        4.51437855f, 0.198276937f, -3.041327f, 2.5661211f, 0.299430311f, -0.707308233f, 0.598376095f, 2.30471253f,
        -2.53021002f, -0.89212364f, 1.07726705f, 2.76950097f, 0.585652173f, 0.140138984f, 0.59059751f, 0.641752124f,
        0.568364084f, 1.76639247f, 3.68349981f, -3.21040273f, 0.199852198f, 0.922839403f, -0.292928874f, 0.391143978f,
        -1.93393958f, -1.85337973f, -0.380685896f, -0.424404979f, -0.11611452f, -1.3928405f, -1.82071996f, -3.23824644f,
        0.986325204f, 2.30023813f, 0.280768722f, 0.477852672f, 0.512018502f, -2.30199575f, 1.96508002f, 1.15055871f,
        0.336648345f, 1.56875002f, -1.20264781f, 0.640288174f, 3.83267689f, 0.858668864f, 0.198464394f, -2.02676582f,
        -4.13803577f, 2.75265288f, 1.16214466f, -1.7414093f, -1.0356549f, 2.32178879f, -3.50482917f, -0.783347607f,
        0.747201502f, -1.1454078f, 2.58428907f, -2.17193508f, -1.0332278f, 0.975989521f, 1.55171514f, -0.0498510227f,
        -1.32280469f, 0.719281673f, 1.31033218f, -2.17077303f, 1.96812069f, 1.96048319f, -1.39882743f, -2.31842089f,
        3.16488194f, 0.671526968f, 0.810176969f, -2.12042117f, 4.40460587f, 3.40006638f, 0.00647168746f, 2.33227301f,
        4.55014229f, 0.227771148f, -0.229725465f, -1.65907252f, -0.825885653f, -1.20339358f, 4.28429174f, -3.31513071f,
        2.15752935f, 1.14075506f, -2.64334989f, 2.13768983f, -3.80032372f, 0.17853494f, -1.00672376f, -0.0293044169f,
        1.9745028f, -1.3750416f, -1.11375368f, 0.762617588f, -3.74406672f, -3.11271834f, 0.714359403f, 2.19121456f,
        2.03943992f, 0.501686394f, -0.366090178f, 2.69694328f, 0.443639249f, 1.13791502f, 0.753337681f, 3.6293714f,
        0.624721169f, -0.877653182f, 0.969456553f, 0.644545913f, -4.06466579f, 1.54602933f, -2.39296103f, 1.63616765f,
        -2.14259386f, -0.983371079f, 2.17195511f, 2.31309581f, 0.147304162f, -0.257581472f, 0.611424923f, -0.123455398f,
        -0.875962734f, -0.274766803f, 0.65779525f, 0.138883621f, 0.495671898f, -0.326806366f, -0.367119104f, 0.887045622f,
        -0.0200784206f, 0.891028941f, -0.513323009f, 0.967870474f, -0.882144153f, 0.610056937f, -0.172140494f, 1.41296279f,
        -1.35079432f, -0.0691697821f, -1.80921459f, -0.233265623f, -0.086424686f, 0.920318723f, -0.350574821f, -1.53236961f,
        -0.0252949595f, -0.260882318f, -0.976136148f, -0.381775916f, 3.20230675f, 0.857061386f, 0.0840113387f, 1.32394397f,
        -0.705335498f, 1.38538992f, 1.50162566f, 0.476844966f, -0.481856078f, 1.30310881f, 0.0130534759f, 3.51514006f,
        0.113826208f, -0.0437154174f, -2.35459971f, 0.227432206f, 0.52029109f, -0.0140147675f, 0.755719006f, 0.190604299f,
        2.47099257f, 2.03491902f, -0.360209048f, -0.262894511f, -1.17579818f, -0.407335639f, -0.468727857f, -1.29582226f,
        -2.90293622f, 1.41405976f, -2.09486914f, 0.611888885f, -0.993296742f, 1.45897496f, 0.0939098746f, -0.463136256f,
        -0.0750770345f, -0.892472088f, -3.74864364f, -2.78370976f, -0.125276491f, 0.71105063f, 2.16580462f, 1.03464544f,
        4.76008749f, 1.93106747f, -0.0698535293f, 2.33904481f, -1.18679988f, -0.932442427f, 0.0796201974f, 0.0914168134f,
        0.328941077f, 2.02983403f, -3.47001982f, 1.2037189f, 0.142372429f, -2.50455737f, 1.38798892f, 1.46420085f,
        -1.33140278f, 1.88660848f, -1.9852134f, 2.40180159f, -0.856987774f, 0.289735168f, -2.01957345f, -1.8994143f,
        0.294084996f, 1.21965587f, -3.12398434f, -1.05853903f, 1.46027172f, 1.1021626f, 0.623462617f, 0.44681707f,
        0.521695614f, 2.12499547f, 2.07669401f, -0.279720515f, -1.27583206f, -0.273592412f, 0.385565221f, 0.701451659f,
        -1.06354165f, -3.24663115f, -1.54465842f, -2.82201457f, -0.730581343f, -0.46773985f, -1.67961478f, -3.65970302f,
        -0.28122285f, -0.838650703f, 0.924610138f, 0.185694367f, -0.907820642f, -3.69674349f, -1.28656387f, -1.30105829f,
        1.0231483f, -1.33457375f, -1.37321293f, 1.68851089f, -1.44799101f, 0.53474921f, -0.754683673f, -0.301414967f,
        2.82576609f, 0.578769386f, -0.564828992f, -2.21707869f, -1.12544227f, -4.09162664f, -4.08456612f, -2.12114334f,
        0.607260764f, -1.44791603f, 1.98278618f, 0.448058784f, -4.04286814f, -0.0169766881f, -1.24106622f, -0.285596371f,
        -2.07065916f, 0.498519868f, 3.30565429f, 3.57450342f, -1.87405562f, 0.99220711f, 1.65698779f, 0.237181515f,
        -2.2455287f, -2.60776114f, 0.489903897f, -0.277796924f, 1.46544254f, 0.917049825f, -3.15819931f, -3.98873615f,
        -2.89943576f, -1.6445421f, -0.438435644f, 0.647121847f, -0.377277195f, -1.81565523f, 1.16601396f, -0.444864571f,
        0.682987213f, -1.52193284f, 3.17489505f, -1.87793505f, 0.808176875f, 1.19249284f, 2.51366043f, -2.35115933f,
        0.834947348f, 4.51996851f, -0.121060774f, -1.69613636f, 0.369860828f, -1.99712908f, 0.0815518722f, -0.400974959f,
        2.23363113f, -0.00190416642f, -1.42189181f, 1.03393447f, 0.162659913f, -3.38481593f, -2.04887128f, 1.29357767f,
        -2.3357389f, 0.157610372f, -2.0296309f, -3.32653213f, -0.928771317f, -2.27544665f, -2.22715187f, -2.0193119f,
        -0.593885005f, -1.14766788f, -0.643153906f, -0.945187688f, -0.633390069f, 0.866011918f, -1.59238207f, 2.73052025f,
        -0.45573765f, 0.952547729f, 3.47214341f, 0.47247237f, 0.0434697121f, -1.14953732f, -0.545814335f, 2.42246079f,
        2.63725638f, 0.451236874f, -3.07898688f, -3.63798118f, -1.98142695f, 0.72528553f, -2.18409467f, 2.25455976f,
        -4.55645657f, -0.476941973f, -3.91014338f, -1.49682939f, -0.526363611f, -1.24046588f, -1.67582273f, -4.31149435f,
        1.80206144f, 0.911729872f, -4.38301277f, 2.17882109f, 0.634673715f, -1.57154977f, 0.953087151f, 2.35227323f,
        -3.66663456f, -0.976256609f, 0.737365723f, 0.71987617f, -0.764156401f, 2.11036015f, 1.81350625f, 2.67325163f,
        -1.53210068f, 0.931810915f, -0.243723035f, 1.29554367f, -0.14071916f, -0.0847180858f, -0.0255528819f, -2.70960593f,
        0.784933686f, 0.70579195f, -0.551055312f, -0.967839956f, 1.81041121f, -1.90812683f, 0.298985481f, 2.08859205f,
        0.865764797f, 1.38747668f, -0.627773166f, 0.153239921f, -0.651374936f, 1.15346646f, -0.212447777f, -0.898699462f,
        0.21467112f, -0.145522133f, -0.51941818f, 1.82973278f, -0.646144688f, 0.410935372f, 0.554549336f, -2.6962316f,
        -0.104300298f, -1.75511599f, -0.395863384f, -1.6756053f, 3.13908267f, 0.262687773f, 0.860804617f, 0.664753437f,
        2.51738381f, 2.58939266f, 2.00074077f, 2.10565853f, 1.39925778f, 0.276850551f, 0.883992672f, 2.04790568f,
        0.0352987088f, -0.988270521f, -1.69524467f, 3.19425964f, 0.945383668f, 1.69929814f, 0.751701832f, -1.4585247f,
        2.44591093f, -2.00754595f, -3.53887081f, 0.877460361f, 1.8392638f, -1.25963366f, 0.0284930579f, -1.75096226f,
        -0.15899764f, -1.85497737f, 2.60479927f, -1.01883364f, -1.2837925f, 0.673519671f, -0.302357137f, 1.15408289f,
        -1.80518448f, 0.0656770095f, 2.28597069f, -3.57549357f, 1.70355999f, -3.28401756f, -2.35740733f, 1.33927238f,
        0.284362674f, -1.08715403f, 0.913527191f, -2.76185322f, 1.10381317f, 1.03178501f, -1.65705788f, -2.13601899f,
        -3.81885099f, 1.05724573f, 1.94473279f, 3.75599313f, -0.176862493f, 0.847008824f, -0.447122604f, -0.0557534806f,
        0.947323799f, 2.05678487f, 0.594507515f, -0.840493739f, 0.230351955f, 0.203467548f, -1.55165231f, -3.1849587f,
        -1.78462911f, -0.248133242f, 0.444858134f, 0.824358881f, 1.19223762f, 3.04914117f, 1.19282341f, 1.06450975f,
        -1.10392451f, -2.74219656f, -1.93265057f, -3.05693388f, -1.55562305f, -2.12213922f, -1.55702496f, -0.259276003f,
        -1.85018337f, 0.971001744f, 2.21705723f, 3.48263144f, 2.65365672f, 1.84019613f, 0.117742978f, -0.572376907f,
        0.743308187f, -0.667277634f, -2.59579206f, 2.85692143f, 1.00194919f, -2.1759491f, -0.935546279f, -1.75391757f,
        -4.96713924f, 1.34595716f, 2.31082487f, 2.62074661f, -0.314274758f, 2.79835868f, 1.10959733f, -1.22248971f,
        2.77493143f, -0.238493934f, 1.06528831f, -2.37998748f, -1.97660434f, -4.2614131f, 0.596707225f, 0.197492301f,
        -2.51627398f, 1.66809201f, -1.48540664f, 0.0878788084f, -1.32682383f, 0.887902379f, 0.358666301f, -1.48141682f,
        -0.454696774f, -1.25342989f, -1.89875484f, 3.29224467f, 1.09608042f, 2.45692039f, 0.0977456644f, -0.822560906f,
        -1.27515686f, -5.52753878f, 0.793087721f, 1.88133895f, 0.351910532f, -4.47612381f, 0.00629813783f, 0.511843085f,
        2.05151248f, -1.71572578f, -1.81301582f, 3.63450122f, -1.96499324f, 0.349732131f, -0.674847841f, 0.506661594f,
        1.24656427f, 2.12329936f, 1.54571068f, -0.412625372f, 0.31568557f, -4.42943954f, 4.41219091f, -0.284801304f,
        2.58977795f, -0.135842547f, 2.04702282f, 2.21648836f, 0.421796709f, 1.87454009f, 2.78610706f, -1.80946481f,
        -4.39011812f, -2.29526997f, 1.69520843f, -0.680783331f, 1.29972649f, -1.65862882f, -3.3605237f, 1.0407176f,
        -0.989119411f, -0.971532226f, 2.40421581f, 3.33563089f, -3.19650126f, -3.80979729f, -2.91719079f, 3.39833641f,
        -2.62982893f, 2.58683205f, 2.4386549f, 1.0277735f, -1.85012174f, -1.2190429f, 0.0235184897f, -0.0645922646f,
        0.510500193f, 3.28256106f, 1.29060864f, -2.562644f, 0.880906105f, -2.23455048f, -0.0813725665f, 1.57232952f,
        0.38943693f, 2.01059461f, -1.61806512f, -1.93880606f, -0.840145111f, 3.38139462f, 4.10350323f, 3.61829305f,
        2.38878179f, 1.57160974f, -1.34762466f, 0.88304776f, 1.48038185f, 1.52072382f, -1.59797537f, 2.03257465f,
        1.90096343f, -0.251681149f, -0.847027898f, 2.85552764f, 3.71433067f, -0.119923763f, 0.388712466f, 2.30928183f,
        -0.399261683f, 1.16143179f, 0.0895840377f, 0.451403797f, -0.303074479f, -2.15075302f, -1.53395569f, 0.653563976f,
        1.85298347f, 1.19498217f, -0.539998949f, -1.60489905f, 0.564354181f, 0.258355319f, -0.824454367f, 0.240244403f,
        0.616354167f, 1.14938879f, 1.63387156f, 1.0762161f, 0.810430169f, -0.0580571108f, 0.0423097424f, -0.836946845f,
        -2.41961575f, -2.29474926f, -2.06630182f, -1.51291406f, 2.8361783f, -0.175233528f, 0.626734853f, 0.0442350656f,
        -2.25520897f, 0.710565031f, -1.31829953f, 3.10317922f, -3.07711244f, 0.091726765f, -0.239809081f, -2.61324477f,
        -1.36377227f, -0.900442302f, 0.389121681f, 1.34810686f, 2.79390407f, -0.958676338f, -1.19956851f, -3.233845f,
        -0.205084056f, 0.889300764f, -0.722119093f, 1.05353916f, -3.43797731f, 0.0194537975f, 1.90141296f, -3.69769645f,
        -0.0352489054f, -0.439023525f, -0.108077437f, -0.57612282f, 2.94604683f, -0.567194104f, -0.419076383f, -1.49088335f,
        3.63153267f, 0.472600549f, 2.79264259f, 0.850428104f, 0.694627941f, 0.700344503f, 1.34020019f, 0.861569881f,
        2.35077977f, -1.1615243f, 2.91574216f, 0.0145905549f, 0.703228474f, -0.187882975f, 2.09233499f, -0.522133589f,
        0.0464763232f, -0.230393231f, -0.61236614f, 1.23583555f, 2.18121791f, -1.26987183f, -2.13398743f, -2.29101205f,
        1.10356843f, 0.49341622f, 2.65461683f, 0.362956882f, -1.95519865f, 0.904502928f, -0.743488729f, -0.409965783f,
        1.66588748f, -2.94507146f, 3.59769797f, -1.17769361f, -2.45255446f, -1.29197454f, -2.05545068f, 0.40139547f,
        -1.64358425f, -0.700048566f, 2.0231595f, 2.31442118f, 0.170232743f, -0.324833035f, -0.459950447f, 2.10761452f,
        0.52989316f, -3.81284547f, -2.06983638f, 2.36094141f, -3.46419168f, -2.74074841f, -2.5980866f, -0.77953577f,
        1.78809023f, -1.2453022f, 1.06059635f, 0.33231315f, -0.471324235f, 1.41134489f, -2.10679388f, -0.170157537f,
        -2.63314462f, 0.372523218f, -1.06466734f, 0.903899968f, -3.72722006f, -2.25645185f, 0.458872527f, -0.25329569f,
        2.30189633f, 0.59764117f, -0.380037367f, 1.4448781f, 2.18177104f, -1.56170762f, 0.749959469f, 0.468248725f,
        0.0854136646f, 3.2355454f, 0.468677223f, 4.10584211f, 0.192649052f, 1.80639338f, 0.444675893f, 0.730724633f,
        -2.52148914f, -1.45823371f, 1.23623025f, -0.16220133f, -1.23798096f, -0.292269498f, 3.28998065f, -0.204444215f,
        2.22077227f, 0.28400436f, -0.433243155f, 2.59510589f, -0.70280534f, -0.503891945f, 3.37036681f, -2.32346559f,
        -2.17170024f, -0.0744233355f, 2.59409738f, 1.74388456f, 1.54658151f, -2.64628601f, 3.61593199f, -1.30164528f,
        -2.49369621f, -1.14862204f, -0.931684613f, 1.28939176f, -0.66805017f, -0.065831922f, 0.427691281f, 1.75026286f,
        -1.67974889f, 1.53377283f, -0.904632568f, -2.84547567f, -1.01417923f, -0.295359075f, -1.68766677f, -2.44996214f,
        -2.83374166f, 1.12395346f, 0.584116757f, 1.87579131f, 1.00384712f, 0.471542239f, 1.63946617f, 0.757528067f,
        1.06097376f, 1.15749478f, -1.38478673f, 4.81200647f, 0.995601594f, 0.108222716f, -3.91067171f, 2.32729506f,
        2.02200103f, 2.76176095f, 1.91532445f, -1.66846311f, 0.105588168f, -3.85854006f, 4.70308638f, 1.02332759f,
        -4.23939848f, -1.81649625f, 0.78998822f, -0.2379307f, -0.406719208f, -0.878425002f, -1.09317052f, -0.56945014f,
        -2.39638591f, -0.663850605f, -0.36102441f, -2.23767209f, 1.2644192f, -2.88855863f, 3.4183023f, 0.150324717f,
        0.628932536f, 0.243481174f, 0.273644775f, -4.09325838f, -0.750765383f, 1.16283035f, 0.755557418f, -2.10718584f,
        4.16996098f, 1.56063986f, 4.08447123f, 0.051917322f, 2.47419024f, 0.57470566f, 0.170756012f, 2.13387203f,
        -2.83975482f, -0.478072554f, 1.62260759f, 2.31181502f, -1.48432648f, 0.563612878f, -2.40498471f, 0.557804763f,
        -0.380731344f, 1.61061025f, 1.53707075f, 1.70666504f, -1.05362701f, 0.537019193f, -0.664174736f, -0.78445822f,
        0.203619301f, -0.962826908f, 1.21723402f, -1.28367293f, 0.241045445f, 0.158890933f, 1.59329402f, 2.11570096f,
        -0.532908678f, -0.362331152f, -1.33676887f, -0.734894276f, -0.343892783f, -0.838424265f, -1.62034261f, -1.64131284f,
        1.22076356f, 1.20417321f, -2.40272117f, 1.90721989f, -1.48814833f, -0.183296084f, -1.28082371f, -1.03621602f,
        -2.30680013f, -0.303405941f, 1.33138597f, 2.58256531f, -0.370520562f, -0.331634223f, -4.47240257f, 0.630669415f,
        3.48329377f, -0.103722945f, -0.321109146f, 0.314273477f, 1.99310374f, -0.826388597f, -0.0872308612f, -2.29220033f,
        -0.166788995f, 0.185107931f, -0.813565552f, -1.21737409f, -1.9262377f, -0.0697972924f, -0.419328511f, 1.09988117f,
        0.248128951f, 2.8243618f, -0.486842185f, 2.09268069f, 3.04254484f, 1.81165493f, 2.00692415f, 0.00784144085f,
        -1.84442794f, -0.071573928f, -0.665827632f, 2.05448723f, 0.921354949f, -0.217429936f, 1.07302129f, 3.58673358f,
        -1.82802379f, 1.4935894f, -0.535335362f, -1.9620955f, -0.18610239f, -3.8616488f, -1.07001555f, -2.59347773f,
        0.350456893f, -0.176906452f, -1.36703777f, 2.29814839f, -3.40603018f, -5.09712172f, 2.76597428f, -3.40926313f,
        -0.0111625828f, -2.28850436f, -1.62344956f, 1.16458154f, 1.10676324f, -0.433006972f, 0.874235332f, 2.37681198f,
        0.0120394928f, 0.557065368f, -1.54828739f, 2.56650639f, 1.51383233f, 0.465230852f, -1.05587673f, -1.41367102f,
        0.0646677986f, -0.331431746f, -1.64289236f, 1.17209494f, -1.989905f, -1.47141457f, 2.13766289f, -1.16858113f,
        -1.53029299f, -3.06628323f, -0.0757986531f, -1.05856788f, -0.177759483f, -0.96873337f, -1.09095526f, 0.625090837f,
        -1.00166368f, 1.11907387f, -3.24313617f, 1.76614523f, 0.541108072f, -0.0429918133f, -3.39165878f, 0.497769117f,
        0.22303389f, 1.34127843f, -0.0192911141f, 0.0870836601f, -1.20440531f, -2.69054151f, -0.60513562f, 3.36281085f,
        0.620490074f, 2.80632138f, 2.18453789f, -2.03907371f, 1.44935989f, 2.12813258f, 2.96000767f, 3.10384941f,
        1.69408321f, 2.40855932f, 1.87116182f, -1.17099547f, -0.403247058f, -1.88103044f, 0.711126506f, 0.0821017325f,
        0.522650599f, -4.23871231f, 2.03766155f, -1.97891366f, -0.0559771322f, 3.29374099f, -1.69014823f, 2.36922693f,
        0.132985026f, 1.65342963f, 0.918578684f, -1.33944142f, 1.29371536f, -0.243526727f, -0.572704554f, -3.71734214f,
        -1.36972678f, 5.79009151f, 0.235731408f, -0.98160547f, 0.956234932f, -0.508057415f, -0.424031168f, 1.86858284f,
        -0.82793653f, 1.86640441f, 0.721862316f, -1.39897394f, -4.10577822f, -1.19783187f, 1.29010856f, 0.191265389f,
        1.65235782f, 3.18329597f, -2.15852141f, -0.931733847f, -0.689817667f, 1.02870095f, 1.2748003f, -2.64611411f,
        -0.294171512f, -1.94413638f, -0.307666093f, 3.5357697f, -0.201267049f, 2.17660475f, -1.88128269f, 1.77881217f,
        0.42552495f, 1.91872621f, -2.06960344f, 0.20069854f, -1.28312683f, 0.154872954f, 2.66823292f, 2.2406683f,
        -1.67126799f, 0.24344261f, -2.67052746f, -2.75910234f, 3.50712037f, -2.95496607f, -0.343429893f, 1.6548754f,
        -1.36628282f, -4.14689255f, 2.0261507f, 2.81621814f, 3.1198051f, -0.479473621f, 2.30367208f, 2.26659727f,
        -0.358093768f, 0.487470031f, -0.22723183f, 2.5402348f, 0.518847048f, -0.645967662f, 0.0386330523f, -0.913129032f,
        1.64259434f, -1.56093299f, -4.38352013f, -0.338593364f, -2.6057117f, -1.75735819f, -1.26988065f, 2.23655272f,
        1.40285039f, -3.31738997f, -1.89522827f, 0.381006509f, 0.442286134f, -1.57349515f, -1.30180728f, 0.341462135f,
        0.136065558f, -1.58660698f, -0.527628243f, 0.471939415f, 1.14183807f, -3.31368279f, -0.486291826f, 0.357369035f,
        -0.344907522f, 0.428590029f, 0.992266595f, 0.574240386f, -0.5765239f, 0.191675335f, 1.08122015f, -1.59322953f,
        -1.42874765f, -1.36138201f, 2.35776734f, -1.88437736f, 1.52257526f, -1.66377938f, 2.89506626f, 0.687876523f,
        0.0121306451f, -0.440621167f, 1.31308162f, -0.746907532f, -2.40454698f, -0.484814376f, 0.994527042f, 0.0716515258f,
        0.668694735f, -0.457093418f, -1.58702159f, 0.937363982f, 0.482563347f, 1.60059476f, 1.49289083f, 2.16054082f,
        -0.666852176f, -0.415243804f, -2.5453124f, 1.01577246f, 2.30216575f, -0.767180204f, -0.447490215f, -1.4598999f,
        0.328572005f, -0.02408069f, 1.90009701f, 0.561146796f, 2.23513937f, 1.49491799f, 1.81625307f, -0.199216619f,
        0.571329355f, 0.720429778f, -0.880607545f, -0.349433392f, 1.46311474f, -0.752057731f, -1.00704896f, -0.328094006f,
        1.92656159f, -1.66613042f, -0.114137478f, -1.35490274f, 0.946283042f, 2.05228138f, -1.06355536f, -2.38318253f,
        2.02463269f, 1.16073906f, -0.457189739f, 0.171308056f, 2.16140747f, 1.18009758f, 1.1456151f, -3.98374605f,
        0.767195463f, -2.04635429f, -0.840176284f, -0.50946635f, -0.666795552f, 1.62837124f, 1.17944372f, 2.60255837f,
        1.78701925f, 1.79253912f, -1.52481139f, 1.86910653f, -0.924535036f, 1.97373271f, -1.77384365f, 0.993863761f,
        -0.83086288f, 2.05281758f, -2.65040898f, 1.24235547f, 0.531837046f, 1.57839298f, -0.519256592f, 0.158692166f,
        -1.64771378f, -2.77655435f, -0.577838242f, 1.77821171f, -1.82472229f, 2.00425339f, 1.59322047f, 0.811106086f,
        -2.47960234f, -0.835411727f, -2.17586541f, -1.84161842f, 1.39270771f, 2.0850904f, -2.17550659f, -1.19938779f,
        -1.46039069f, -0.250181019f, 2.31790757f, 0.239935979f, -2.02094388f, 0.297205627f, -0.439545512f, -1.3088181f,
        -0.0688122511f, -1.19154024f, -0.278036356f, -2.64426041f, -0.948711455f, 1.15945446f, 2.65259719f, 2.46660233f,
        0.0994244218f, 0.496111333f, 0.308320105f, 0.552127659f, -2.56885719f, 2.90916109f, 0.342362612f, 0.866690576f,
        -0.3315745f, -0.191867411f, -0.0206360631f, 2.46596837f, 3.68491626f, 0.443754554f, 3.13301253f, -2.83280969f,
        -0.0206007082f, -2.14765644f, 0.69499898f, 1.72377503f, 0.364955157f, -1.75375259f, 1.00871766f, -2.026371f,
        -3.37375903f, -0.594237924f, 0.863259912f, 1.06880474f, -0.473486125f, 0.882628381f, -0.254183114f, -2.01070547f,
        -1.23940122f, 2.36941314f, -3.58377361f, -1.36610699f, 1.20134568f, -1.84853506f, 0.163468331f, -1.30512917f,
        -0.696299613f, -0.148057938f, 2.58055735f, -3.13977766f, -2.20813298f, -0.341101855f, -1.57002151f, -1.47883141f,
        2.29881191f, -1.24324918f, 0.661457717f, -2.25149941f, 2.65665317f, -2.19328141f, -0.808776498f, 2.56594038f,
        -0.20711723f, -2.03187776f, -2.81348133f, -2.29426622f, 0.114026889f, 1.1553396f, -2.49561238f, 1.62535512f,
        0.34747833f, -3.3241322f, 0.53187871f, -1.51689208f, 0.637488902f, -1.85440159f, 0.274094254f, -0.683708251f,
        -2.46876144f, -1.10138547f, 0.959213495f, -0.407804221f, 2.41964912f, -2.62603331f, 1.25626898f, -3.79354262f,
        1.30995893f, -0.726188183f, 1.28778327f, 1.81000972f, -1.40686607f, 1.47469032f, 0.909319222f, 3.02837229f,
        -0.133877993f, 2.81225967f, -0.321858823f, -1.25749826f, -1.06212509f, 3.07186437f, 1.26847947f, 2.21747231f,
        3.73854589f, -0.509476542f, 0.477626979f, 0.00654552225f, -4.11258888f, -0.399241298f, 1.13534367f, 1.07023251f,
        -1.04808128f, 1.05385375f, 2.05882192f, 2.52160239f, -0.751739323f, 0.873278022f, -0.934549987f, 0.598410666f,
        1.56755173f, -0.154503837f, -0.622433245f, -2.69484401f, 0.378145814f, -0.32413733f, 0.667256236f, 0.480934978f,
        -1.78634918f, 0.929215789f, -3.47587013f, 3.23239613f, 1.36409867f, -0.692775607f, 3.08623552f, 2.91672897f,
        0.179102555f, -1.05447304f, -0.252414823f, 1.45119178f, 0.253952414f, -0.398068517f, 0.786635697f, 0.189055949f,
        -2.54522324f, 1.41292715f, -0.69516772f, -1.87973225f, 1.24185109f, 0.353317678f, 1.08944726f, 2.20059562f,
        1.31244659f, -1.14715087f, 0.543951154f, 1.22540581f, -2.93591094f, 0.147654131f, 0.0862161741f, -2.40301251f,
        2.42654252f, -0.708754182f, -1.14803672f, -0.357893795f, -1.68594897f, -0.295902669f, -2.32274842f, 2.21750927f,
        -0.769697785f, 0.0564251244f, -3.80936193f, 0.466746688f, -1.44837129f, 2.01600051f, 2.10565829f, -0.491168916f,
        -0.425994635f, 1.32691598f, -1.13267303f, -1.43098855f, 0.326265454f, -0.464086503f, -2.29650116f, -0.594824731f,
        -2.16068196f, -1.39989889f, 1.67206562f, 2.3449235f, -0.609532118f, -0.314866334f, -2.68201923f, 2.06256294f,
        1.89197564f, -0.266643375f, -1.47438645f, 0.461480469f, -1.4185183f, 0.81761539f, 0.0848761871f, 0.955570459f,
        -1.16669393f, -0.526750803f, 2.62241983f, -1.79888046f, -2.27459168f, -0.102091491f, -1.40361714f, 1.48885453f,
        1.21110773f, 0.49115175f, -0.962574184f, -1.37189889f, 0.517048597f, 1.2775346f, 1.91883337f, -0.274216741f,
        0.1087633f, -1.02097023f, 1.51050127f, -3.17973995f, -1.35800803f, -0.431818902f, 1.60753739f, 0.823847115f,
        1.5669086f, 1.36813438f, -0.9459216f, -0.0368801169f, -0.451646894f, -2.91762662f, -0.267255753f, -0.788757682f,
        -1.63780844f, -0.491466105f, -1.20764792f, 0.543622196f, -0.0566420145f, -3.66154218f, 0.853826165f, -1.26975667f,
        -2.2714417f, 1.12762189f, -3.06017113f, -0.248901621f, -3.90086746f, -0.802619278f, 3.06735325f, -0.174680844f,
        0.78468734f, -0.752221286f, 0.651940703f, -0.668093681f, 1.35330784f, -1.48784423f, 0.602264643f, -1.17016828f,
        2.25931931f, -2.17672372f, 3.40419102f, -1.07450438f, 2.35034466f, 0.594655931f, 0.848826408f, 2.34993386f,
        -2.7743454f, -0.868684053f, -2.81614614f, -0.178482696f, 0.113217846f, 0.312868625f, -3.5115273f, -2.42064166f,
        -0.663714051f, 1.17641532f, -1.75541174f, -1.09988356f, 0.216184393f, 3.60818744f, -1.46827757f, 1.80893409f,
        0.450847149f, 2.03079605f, -1.63068759f, 0.132727578f, -0.0475241877f, 0.293385655f, -0.312688679f, 1.97942233f,
        -2.6795578f, -1.98858678f, 0.4826276f, -2.02408767f, -2.05394387f, -3.32404613f, 0.91936636f, -0.892677128f,
        1.48203814f, -0.402480483f, 1.00708222f, -0.605585575f, 0.378598183f, 1.32519209f, -1.05517495f, 0.0544714294f,
        -1.95486009f, 1.11568236f, -1.18149698f, -0.99191606f, 2.06663394f, -1.66975236f, 0.51668638f, -1.40838504f,
        1.23076069f, -0.0961433053f, -0.586370528f, -1.97819924f, 0.416933626f, 0.741973698f, -0.112059213f, -0.179000422f,
        -1.66462314f, -1.51533163f, 0.164755166f, 0.656788051f, -1.47439563f, 1.2903527f, 0.813171148f, 0.249011666f,
        -1.41089749f, -3.4081018f, 1.19097018f, -1.14323831f, 0.30028227f, 0.176620781f, 0.704275727f, 0.137360349f,
        -2.3100214f, -0.232813656f, 0.585066676f, 2.01783943f, -3.73916554f, 1.19867277f, 2.90687656f, -2.0564425f,
        2.17011595f, -0.852394879f, 1.09109449f, 3.58009005f, -3.17364407f, 1.0594033f, -2.01079369f, -2.23224735f,
        -1.75142574f, 1.04061294f, -0.0129775908f, 1.11368394f, 1.79393947f, -1.86188686f, 0.678511381f, 0.691294611f,
        1.77464449f, 0.16430299f, -0.906197309f, -1.41398776f, 0.514558375f, 0.272649944f, 0.0847457871f, -2.05093718f,
        3.68109488f, 0.529826641f, 0.141166627f, -1.73644185f, 0.440230489f, -1.5091418f, -2.83666205f, 3.66176629f,
        -1.51848042f, -1.90789235f, -1.60915768f, -1.12319219f, 3.11971164f, -1.89650416f, 1.2812711f, 2.58490729f,
        2.91136527f, -0.449565083f, -0.740218818f, 0.443878651f, 1.72392821f, -5.12323236f, -0.0662078336f, 0.180815548f,
        -0.596089244f, -0.98060137f, -0.566658258f, 1.74653256f, -0.0784039125f, -0.649317265f, -2.03643298f, 0.161425695f,
        1.86597455f, -1.42008245f, 1.07371843f, -1.44989276f, 0.982899606f, 0.839612484f, -0.211558133f, 0.32600069f,
        -0.256658614f, -1.72963536f, -0.315632224f, -2.19759297f, 1.04564118f, -1.35800099f, 1.32775474f, -0.369172543f,
        1.65016031f, -0.519182682f, -1.14374244f, 1.67652917f, -1.00925887f, 1.38617277f, 0.470693111f, 0.105725184f,
        -0.203897104f, -0.800595582f, 1.22068477f, 1.74058151f, 1.08852696f, 1.13382101f, 0.94725883f, 2.94795036f,
        -0.336961776f, 0.388970256f, -0.601431251f, -0.176590919f, -1.96572125f, -2.05108023f, 2.02644539f, 0.803420007f,
        2.97262573f, -0.608675838f, -2.38410354f, -0.493769288f, 0.517700732f, -1.26055813f, -0.183484107f, 1.54728115f,
        -1.53196251f, 0.130629748f, 1.62867367f, -0.312734902f, -3.07501101f, 0.783712506f, -2.80189872f, -3.39454341f,
        3.55347967f, 1.38844264f, -0.249753714f, 0.891456366f, -1.31576467f, -1.501706f, -0.268115699f, 0.63534987f,
        0.247513428f, -2.85336041f, -2.61474586f, 0.233243331f, 2.90244436f, -1.54345787f, -4.48566771f, 2.56401086f,
        -0.726944447f, -1.10236669f, -0.98970741f, -1.84356904f, 0.695895135f, 0.0613047481f, -2.36492157f, -0.905593216f,
        1.30869865f, 2.57679892f, -0.889137626f, 1.53833175f, -2.67127395f, -2.11848569f, 0.17862232f, -0.538210571f,
        -0.842452645f, -0.133455068f, 1.94888186f, 0.0446172804f, 1.3568058f, -1.36518538f, 0.55583638f, -0.749737859f,
        -1.90778852f, -1.54936337f, 1.28919232f, -1.35486686f, 1.73496938f, -1.86852491f, -0.873155236f, 1.61264026f,
        -0.755039155f, 1.03351617f, 1.76352966f, -0.449786127f, 1.25751865f, -1.88249075f, 0.0451225713f, 3.08893394f,
        0.744316757f, -0.000614355842f, -1.99583042f, 2.1057198f, -1.31173265f, -2.77687812f, -0.724728346f, 0.200983688f,
        -2.13356256f, -1.65971243f, -0.599292815f, -1.22474957f, -0.537662387f, 1.04217196f, 2.24001503f, -0.588882744f,
        -0.0822217837f, -0.331412107f, 0.0904732645f, 1.85139561f, -1.73933637f, 1.79712987f, 1.26576114f, 2.42304492f,
        -1.1252054f, -1.61811614f, -1.59148157f, 0.242037758f, -2.14721823f, 2.39116359f, -0.14915742f, -2.97131824f,
        1.01662838f, 2.36072707f, -0.0596953966f, 1.6191504f, 1.0059346f, 2.17232227f, -1.97560942f, -0.535238206f,
        0.186352268f, 1.20167887f, -0.292798668f, 1.36403382f, -0.274645269f, 2.31680894f, -1.76745081f, 0.166226119f,
        1.60136044f, -1.57224035f, 0.978283226f, 0.194223493f, 0.763662815f, -1.38293922f, 1.95362198f, 1.39368057f,
        0.741312385f, -0.973465562f, -1.58669758f, -0.980730534f, -0.208928898f, -1.60481167f, -2.75533795f, -0.444708467f,
        0.915656924f, -0.500791788f, 1.71047604f, -1.44820964f, 0.827918351f, -0.434509993f, -2.82458115f, -0.0955885947f,
        0.854416072f, -2.13179159f, 0.801559746f, 2.76817942f, 2.15163255f, -0.413677096f, -1.17223787f, -1.26677656f,
        -0.598448575f, -1.25723004f, -0.216518223f, -0.401090205f, 1.48755574f, -0.706793547f, 0.236287907f, 1.01069152f,
        0.169819042f, -3.99064875f, -1.23582911f, -1.48763299f, -1.50447559f, 2.19378567f, 2.02855253f, -1.97871077f,
        -1.66154528f, -1.14677846f, 1.11370337f, 1.49939001f, 2.22385216f, 1.0809375f, -2.81296444f, -0.743332028f,
        -3.45704198f, 3.42966986f, -2.50605536f, 0.915754616f, -0.0895011052f, -1.49486256f, -2.48982263f, -0.25166437f,
        -2.24903035f, -4.48560381f, -1.78423035f, -2.77649355f, 3.507411f, 1.7684207f, -3.07277846f, -1.12916982f,
        4.80622149f, -1.82319677f, -1.26607227f, -4.42080069f, -0.421172053f, -1.67978728f, -0.418123573f, -0.58401829f,
        3.07431889f, -2.50261283f, 1.41177225f, 1.56774664f, 0.304274619f, 0.188039064f, 0.371042013f, 2.65183187f,
        0.636708021f, 0.961494327f, -0.807641208f, -0.279320627f, 0.164488301f, -0.917974353f, 0.916922212f, -0.101233795f,
        1.33679557f, 1.58644402f, 0.51539737f, -0.54885453f, -0.669550896f, 1.76366091f, -0.355827183f, -0.0167001877f,
        -1.63871658f, -1.15172899f, -0.335547209f, 1.98077166f, -0.824461102f, 0.875835896f, 0.976842046f, -0.112534396f,
        -1.87776601f, -1.58596551f, -0.602017403f, 3.35185981f, 1.79364204f, -0.126562804f, -0.678111315f, -1.39631951f,
        -0.336029172f, 0.404960692f, 0.737082481f, 0.152729943f, 1.99257982f, 2.51933408f, -0.57953459f, -0.498322725f,
        1.06860292f, -1.50643873f, -1.1527698f, -2.23902321f, -1.71599591f, -1.5090853f, -1.38080657f, 2.50202298f,
        1.62916863f, 1.95484471f, -1.59769702f, 0.620747507f, 0.903995454f, 1.10227215f, 0.613024473f, 0.50147301f,
        0.00568195991f, -2.13102388f, -0.884485066f, 0.0513896309f, -0.422230244f, -0.682629883f, -0.904162526f, -0.539924443f,
        0.825305879f, -1.58685136f, -0.812395453f, -0.420783997f, -0.687058926f, 0.920603156f, 1.22857034f, -1.20639253f,
        -0.120228842f, 0.191309556f, 1.48494065f, -1.45099735f, -1.04710364f, 1.76610231f, -3.1002667f, 0.0594328493f,
